<?xml version="1.0"?>
<opencv_storage>
<opencv_ml_svm>
  <format>3</format>
  <svmType>C_SVC</svmType>
  <kernel>
    <type>LINEAR</type></kernel>
  <C>5.0000000000000000e-01</C>
  <term_criteria><epsilon>1.1920928955078125e-07</epsilon>
    <iterations>1000</iterations></term_criteria>
  <var_count>4356</var_count>
  <class_count>2</class_count>
  <class_labels type_id="opencv-matrix">
    <rows>2</rows>
    <cols>1</cols>
    <dt>i</dt>
    <data>
      0 1</data></class_labels>
  <sv_total>1</sv_total>
  <support_vectors>
    <_>
      0. 0. 0. 0. 0. 0. 0. 0. 0. 0. 0. 0. 0. 0. 0. 0. 0. 0. 0. 0. 0. 0.
      0. 0. 0. 0. 0. 0. 0. 0. 0. 0. 0. 0. 0. 0. 7.83818177e-05
      8.92587923e-05 8.71585071e-05 3.07716342e-04 4.51890659e-03
      -5.16034997e-05 1.97338977e-05 2.48720080e-05 1.19856362e-04
      -4.69068950e-03 -5.06193051e-03 -8.54724925e-03 -1.71142872e-02
      -1.29830427e-02 -9.21281148e-03 -1.14037367e-02 -7.60713499e-03
      -4.82444512e-03 9.79984520e-07 5.95058691e-06 5.81056702e-06
      1.97342117e-04 6.33542612e-03 -6.19634520e-05 2.37919612e-05
      2.66466304e-05 1.06471198e-05 -1.72780291e-03 -5.03640622e-03
      -1.88387989e-03 -3.77408639e-02 -1.29830427e-02 -9.64094140e-03
      -2.92590028e-03 -3.33852391e-03 -4.36987216e-03 -2.27699918e-03
      -9.51030105e-03 -9.07319039e-03 -1.49082970e-02 1.04310515e-03
      -1.06183551e-02 -1.07987989e-02 -1.05569065e-02 3.19558615e-03
      -1.34759219e-02 -1.87401678e-02 -1.06593538e-02 -3.64594236e-02
      2.85008326e-02 -3.48176770e-02 -3.13153602e-02 -1.57242231e-02
      1.12195583e-02 -1.23676797e-03 -5.36245247e-03 -6.92020310e-03
      -2.83938404e-02 9.29131825e-03 -9.70122777e-03 -6.09632768e-03
      -9.47444234e-03 -6.36278372e-03 -4.75482037e-03 -8.53688456e-03
      -9.85557027e-03 -3.90877426e-02 3.21655162e-02 -2.62257382e-02
      -3.47994156e-02 -2.14428790e-02 -8.28353129e-03 -2.57285330e-02
      -5.69647830e-03 1.98337273e-03 -2.08029412e-02 1.82904825e-02
      -3.15688811e-02 -3.16830464e-02 -6.94884732e-03 -1.40866693e-02
      -1.06376382e-02 3.00384057e-03 1.10539738e-02 1.56982224e-02
      1.91969983e-02 1.65160056e-02 9.72790550e-03 1.27767688e-02
      -4.80047287e-03 -5.71710430e-03 -5.41577814e-03 -2.34633009e-03
      -1.60409957e-02 1.15680713e-02 -2.31206715e-02 -3.73501144e-02
      -1.44277522e-02 -2.44784891e-03 -1.33198325e-03 -4.16355114e-03
      4.39204881e-03 9.82825551e-03 1.12281824e-02 -3.47830635e-03
      -3.39755137e-03 6.38291892e-03 8.72008037e-03 -2.61109751e-02
      1.77601655e-03 3.95907089e-03 9.21539217e-03 1.10298805e-02
      1.33942114e-02 6.61218585e-03 7.40381004e-03 -3.01874913e-02
      -2.18022335e-02 2.38876417e-03 -6.04253728e-04 1.08846152e-05
      -3.06026661e-03 1.51274586e-02 1.22090392e-02 1.02023762e-02
      -2.13150159e-02 8.90668947e-04 2.87405492e-05 -9.73918708e-04
      -5.43080911e-04 -1.15351297e-03 6.67835306e-03 1.34169469e-02
      2.75733951e-03 1.07486779e-02 2.79619521e-03 3.88719374e-03
      -4.54026461e-03 -5.23372972e-03 -1.24004371e-02 3.64051424e-02
      2.49127671e-02 7.14960136e-03 1.07360305e-02 -3.22987922e-02
      4.67124954e-03 -4.95779459e-05 2.31727003e-03 6.33653812e-03
      6.27112808e-03 6.61705481e-03 5.80600277e-03 -2.70066634e-02
      -2.66660228e-02 9.82565898e-03 7.79754622e-03 1.62971746e-02
      3.48883457e-02 1.26231285e-02 9.23279021e-03 7.65733048e-03
      -2.60402355e-02 6.74410549e-04 4.14980156e-03 -4.12170216e-03
      4.62302193e-03 3.80791244e-05 2.73846071e-02 1.12729305e-02
      1.17793831e-03 6.02567941e-03 -6.81431906e-04 8.59351549e-03
      5.86360320e-03 2.13455260e-02 1.58248078e-02 2.92930510e-02
      1.01559702e-02 -1.22758094e-03 -2.68428400e-03 -2.86440738e-02
      4.45768517e-03 7.02029048e-03 1.68388654e-02 2.80080419e-02
      6.80562155e-03 6.86154002e-03 7.94531498e-03 -2.89282370e-02
      -2.17447840e-02 3.77413584e-03 6.43441686e-03 1.21449148e-02
      8.84315558e-03 4.59923409e-03 1.13248480e-02 1.14532961e-02
      -2.38421094e-02 9.58100427e-04 7.59210065e-03 8.56995396e-03
      2.08253413e-02 1.84869096e-02 1.64857991e-02 8.47548712e-03
      2.32078950e-03 -2.37438432e-03 1.65151770e-03 7.62614375e-03
      8.52692407e-03 1.77424941e-02 -1.78423780e-03 1.60658290e-03
      8.39552190e-03 5.69621660e-03 4.60071396e-03 -1.62659734e-02
      4.37494460e-03 6.25336310e-03 8.56513716e-03 1.44320801e-02
      4.00860002e-03 1.13230739e-02 1.00541497e-02 -1.80458296e-02
      -2.00221185e-02 8.41900520e-03 7.26524880e-03 1.17734903e-02
      1.20396621e-03 1.26658389e-02 1.85734965e-02 1.54463081e-02
      -2.06597075e-02 2.24609487e-03 8.01319256e-03 1.16240000e-02
      1.20616257e-02 3.63335456e-03 6.73607283e-04 6.80532912e-03
      8.49837624e-03 5.68896206e-03 1.89338904e-03 7.58265238e-03
      1.53745338e-02 1.69741679e-02 -5.62553108e-03 1.47957522e-02
      1.43293384e-02 1.28542231e-02 7.43343914e-03 -2.29505878e-02
      8.06066673e-03 6.16554031e-03 1.51767349e-02 -1.25467489e-02
      2.11794525e-02 1.45333698e-02 1.15015684e-02 -1.78313851e-02
      8.74279300e-04 1.96737540e-03 2.13213568e-03 7.43078347e-03
      -2.85857394e-02 1.34151932e-02 3.05662374e-03 3.48427705e-03
      -1.18247618e-03 2.48172809e-03 4.88876412e-03 1.27328783e-02
      2.36114841e-02 -4.82239854e-03 2.96931118e-02 1.10417120e-02
      8.16823263e-03 4.48346278e-03 1.45594089e-03 8.21329129e-04
      4.68666758e-03 1.31747555e-02 -2.13752147e-02 1.45141045e-02
      3.32138082e-03 1.99809647e-03 1.69318891e-03 3.65827768e-03
      -1.76413614e-05 2.61810113e-04 3.10050533e-03 -5.94499102e-03
      6.46232581e-03 -3.15277139e-03 -3.60001795e-05 1.75699848e-03
      1.18365540e-04 0. 0. 0. 1.89442665e-03 -8.00610269e-06
      1.75219233e-04 5.85553280e-05 1.18365540e-04 6.45042572e-04
      -9.05512934e-05 1.49352336e-03 8.01033713e-03 -5.94499102e-03
      6.57156203e-03 1.27621135e-03 7.33332476e-04 7.10316875e-04
      4.42938153e-06 0. 0. -2.39064548e-06 1.52862025e-03
      -3.19659521e-05 1.16812835e-05 3.90368859e-06 4.42938153e-06 0. 0.
      0. 0. 0. 0. 0. 0. 0. 0. 0. 0. 0. 0. 0. 0. 0. 0. 0. 0. 0. 0. 0. 0.
      0. 0. 0. 0. 0. 0. 0. 0. 0. 0. 0. 0. 0. 0. 0. 0. 0. 0. 0. 0. 0. 0.
      0. 0. 0. 0. 0. 0. 0. 0. 0. 0. 0. 0. 0. 0. 0. 0. 0. 0. 0. 0. 0. 0.
      0. 0. 0. 0. 0. 2.63853451e-07 7.89547130e-07 -2.71944755e-05
      6.38994388e-03 -1.54815225e-05 8.30416775e-06 3.89858405e-06 0.
      1.33545662e-03 -1.84427470e-03 -2.73114047e-03 -1.48911821e-02
      -1.54173039e-02 -9.96736996e-03 -6.62278803e-03 -3.58288689e-03
      3.56678502e-05 0. 3.95780171e-06 1.18432072e-05 5.90134696e-05
      6.25458639e-03 9.17716898e-05 1.07006099e-05 3.57595695e-06 0.
      -1.81783619e-03 -6.99886819e-03 -1.33600244e-02 -5.02178352e-03
      -1.54173039e-02 -1.06170019e-02 -1.21037001e-02 -7.23287463e-03
      -1.86625239e-03 -5.78239968e-04 -4.31997888e-03 -6.32377109e-03
      -2.27494072e-02 3.38860857e-03 -1.25588011e-02 -8.86690151e-03
      -9.81849246e-03 -3.57981911e-03 -2.84499722e-03 -8.96880776e-03
      -8.71693622e-03 -3.15018035e-02 2.03779005e-02 -2.60119177e-02
      -3.20853032e-02 -1.83357578e-02 -4.78241732e-03 -2.16316688e-03
      -5.82976360e-03 -5.92729496e-03 -1.14722289e-02 3.20047676e-03
      -1.65683385e-02 -8.81477445e-03 -7.03936629e-03 -3.32505652e-03
      -3.46065057e-03 -1.29395276e-02 -9.68553126e-03 -2.87454985e-02
      1.79872327e-02 -9.59004927e-03 -8.26511905e-03 -9.08283051e-03
      -2.97712116e-03 7.75991753e-03 -1.36126461e-03 8.71196680e-04
      -2.19212733e-02 4.71179225e-02 -2.05492731e-02 -2.36756653e-02
      -5.67032164e-03 5.04984288e-03 1.17800422e-02 9.51515976e-04
      1.07143391e-02 9.23206005e-03 3.18847075e-02 -5.91718033e-03
      4.57429531e-04 -4.19433607e-04 9.25772078e-03 7.96614122e-03
      -4.01353743e-03 -6.10329211e-03 -2.08078884e-02 3.20938379e-02
      -2.75426991e-02 -2.93384660e-02 -4.66036750e-03 1.51873119e-02
      -7.57029792e-03 -4.66283737e-03 6.49176631e-03 2.87422026e-03
      6.68054121e-03 -2.92001106e-02 -2.79262736e-02 -2.48391218e-02
      2.57021934e-03 7.27894343e-03 -2.93678464e-03 3.43968323e-03
      -4.42615850e-03 1.09852627e-02 3.42692307e-04 2.60056602e-03
      -2.22895551e-03 9.81162582e-03 3.81243904e-03 -1.82824174e-03
      5.36424527e-03 4.66252957e-03 9.03302338e-03 2.94704307e-02
      8.88420455e-03 1.64068688e-03 5.80338761e-03 -1.21746110e-02
      -2.23010611e-02 -7.71642104e-03 -9.02343635e-03 3.07263620e-03
      -1.42622730e-02 -2.23545469e-02 -1.74529720e-02 -3.60909593e-03
      -1.28371939e-02 -2.24950518e-02 6.48440188e-03 7.61308149e-03
      9.43329185e-03 -7.39038456e-04 -1.60753299e-02 -2.18489766e-02
      -1.56719312e-02 -3.89427086e-03 1.05585532e-04 2.11832975e-03
      1.48707721e-02 -9.17838048e-03 2.27404144e-02 -5.48755471e-03
      -1.26088159e-02 -5.97975822e-03 -5.22617809e-03 4.48922534e-03
      6.33961381e-03 3.13750133e-02 -7.19649112e-03 2.13094167e-02
      -3.34455748e-03 -7.99483713e-03 -4.36745584e-03 -2.56057028e-02
      -1.87693350e-02 9.00790934e-03 2.39977371e-02 -1.96809862e-02
      -5.41056693e-03 -3.51718254e-02 -3.81467305e-02 -3.09957564e-02
      -6.58341160e-04 5.91682922e-03 1.72293279e-02 3.95475738e-02
      -5.59475739e-03 -6.48547010e-03 -3.21089290e-02 -2.16760989e-02
      -8.41091014e-03 -1.06419530e-02 -6.70188980e-04 1.56336569e-03
      2.34151911e-02 -1.83154698e-02 2.84233643e-03 -6.95922179e-04
      -6.87891664e-03 -1.08240200e-02 2.37696891e-04 4.04229108e-03
      1.38976993e-02 1.86697207e-02 -1.19399475e-02 1.22094085e-03
      5.66581823e-03 -4.72250395e-04 -4.13500937e-03 -6.64321752e-03
      4.35486808e-03 -1.59263052e-03 1.59576889e-02 -1.52841555e-02
      -4.82102390e-03 -1.01680476e-02 -9.22186859e-03 -8.37192498e-03
      4.68722358e-03 6.71186578e-03 4.89984290e-04 -8.86531270e-05
      -7.38694193e-03 1.32417597e-03 5.34326816e-03 4.52821329e-03
      2.29243306e-03 1.04973828e-02 8.45506974e-03 1.36534981e-02
      5.39795123e-03 -1.03918081e-02 -6.25017285e-03 3.83489183e-03
      2.07836786e-03 8.27919785e-03 2.25409982e-03 6.33685198e-03
      1.31879197e-02 1.46508347e-02 -1.94386616e-02 5.97864296e-03
      4.97907866e-03 7.03027193e-03 -2.58735119e-04 1.00594992e-02
      4.40075668e-03 5.44050382e-03 -1.78361024e-05 -1.04412055e-02
      5.52071724e-03 4.59498866e-03 3.45484051e-03 8.86282232e-03
      -1.88057264e-03 -9.24707623e-04 1.09348381e-02 1.39124021e-02
      -1.36930933e-02 1.63416925e-03 4.11990518e-03 5.55824628e-03
      -1.81221776e-03 1.76662579e-03 3.16412980e-03 1.05951792e-02
      1.67598650e-02 -8.18883907e-03 1.92382149e-02 7.16397865e-03
      4.98234527e-03 1.42747792e-03 9.41739301e-04 2.54205428e-04
      2.76737311e-03 9.39801428e-03 -2.19774637e-02 1.11534586e-02
      3.28786834e-03 1.99232250e-03 7.27590581e-04 2.10279570e-04
      1.51212874e-03 4.78182500e-03 1.90968718e-02 -6.45519188e-03
      1.15417438e-02 5.29076299e-03 3.50431888e-03 -1.40606868e-03
      7.47975020e-04 1.26042461e-04 8.03703093e-04 4.38501360e-03
      -2.00402644e-02 4.85803699e-03 2.04599346e-03 1.21244066e-03
      2.43316099e-04 2.74537801e-04 -8.64853064e-05 8.11929989e-04
      5.59146469e-03 -3.65366717e-03 6.25470141e-03 1.27680250e-03
      5.76770166e-04 3.83214501e-04 1.71600004e-06 0. 0. -1.37839061e-05
      2.23830133e-03 -2.41409471e-05 0. 0. 1.71600004e-06 3.24347318e-04
      5.69376425e-05 -2.49860313e-05 -1.67273113e-03 -3.65366717e-03
      1.15581718e-03 8.27049895e-04 4.50663152e-04 4.75228444e-04
      6.51911520e-08 0. 0. -1.40362490e-05 1.85871834e-03
      -8.60461387e-06 0. 0. 6.51911520e-08 0. 0. 0. 0. 0. 0. 0. 0. 0. 0.
      0. 0. 0. 0. 0. 0. 0. 0. 0. 0. 0. 0. 0. 0. 0. 0. 0. 0. 0. 0. 0. 0.
      0. 0. 0. 0. 0. 0. 0. 0. 0. 0. 0. 0. 0. 0. 0. 0. 0. 0. 0. 0. 0. 0.
      0. 0. 0. 0. 0. 0. 0. 0. 0. 0. 0. 0. 0. 0. 0. 0. 0. 0. 0.
      2.32434377e-06 6.95529616e-06 8.40678549e-05 5.80893876e-03
      7.64406068e-05 1.37517500e-05 3.20698905e-06 0. -5.79313142e-03
      -7.76674785e-03 -7.63050932e-03 -3.25802248e-03 -1.51199643e-02
      -1.28038106e-02 -1.10090310e-02 -2.78263749e-03 -7.35136913e-04 0.
      0. 0. 1.85615994e-04 6.68276381e-03 1.29471482e-05 1.78516930e-05
      3.66100835e-06 0. -1.16560282e-03 -2.88874516e-03 1.81394396e-03
      -1.38047198e-02 -1.51199643e-02 8.41823593e-03 -4.75001568e-03
      3.27765080e-03 2.91030714e-03 -4.48797084e-03 -5.60442265e-03
      -2.96462467e-03 -1.04501555e-02 -1.95856951e-02 -8.85356497e-03
      -1.54273096e-03 -4.25881997e-04 -1.51682843e-03 -2.85743433e-03
      -1.41985407e-02 -1.22233555e-02 -3.04526202e-02 1.73261168e-03
      8.04969482e-03 5.88097563e-03 2.09899060e-03 3.49095673e-03
      -2.80525623e-04 -2.12572818e-03 1.01262832e-03 -2.01932900e-02
      -1.91440023e-02 1.15294866e-02 7.06090964e-03 9.24820639e-03
      5.94686763e-03 1.08211618e-02 -4.65161307e-03 -2.39755446e-03
      -2.75031626e-02 3.93042901e-05 2.91346516e-02 1.39673175e-02
      1.80193502e-02 2.31787134e-02 3.60779231e-03 -1.05612911e-02
      -1.34329712e-02 -2.75714081e-02 2.42604520e-02 -1.58864986e-02
      -7.75125250e-03 5.30847209e-03 1.11961188e-02 -8.74701422e-03
      -2.71816622e-03 8.46268702e-03 -2.51221401e-03 -9.42564569e-03
      -3.64572741e-02 -2.44928896e-02 -1.15504200e-02 6.57505961e-03
      2.67691612e-02 -4.29712422e-03 1.80116331e-03 -2.47708634e-02
      2.44069118e-02 1.12580776e-03 4.36060037e-03 9.93828010e-03
      2.69862730e-02 2.82938443e-02 2.01439112e-03 8.62154178e-03
      -7.56648742e-03 -8.60416517e-03 -4.11005318e-02 -2.41531264e-02
      -2.38701757e-02 1.78896692e-02 8.10490735e-03 5.30731864e-03
      1.72253344e-02 1.00695891e-02 2.85308696e-02 9.92498640e-03
      -5.65143302e-03 3.62830330e-03 1.73333511e-02 1.32309063e-03
      -7.05023017e-03 1.22594694e-02 1.30027197e-02 2.51768772e-02
      -5.00152353e-03 -6.96882885e-03 -1.36616211e-02 5.75959275e-04
      3.60390209e-02 1.85415447e-02 1.98577177e-02 -3.08742304e-03
      7.28560193e-03 -3.38299316e-03 -5.08347666e-03 3.53869214e-03
      3.04736849e-02 -6.26999536e-04 -2.76763104e-02 -2.75294520e-02
      -7.06287622e-02 -2.53037997e-02 -2.92276591e-02 -1.76241491e-02
      -4.39679176e-02 -9.77561530e-03 -1.50374009e-03 3.26388818e-03
      2.99551617e-02 5.03546782e-02 5.44228218e-02 1.62160397e-02
      -1.52292587e-02 -2.74053123e-02 -7.09397020e-03 9.84374434e-03
      1.78726800e-02 3.47855277e-02 5.46708815e-02 6.03093095e-02
      1.84478052e-02 3.63064115e-03 -2.86145019e-03 1.01570729e-02
      -1.22747617e-02 -2.11412460e-02 -3.10611017e-02 -4.89038602e-02
      -2.28039008e-02 -2.09706482e-02 -1.33165717e-02 -4.12074924e-02
      -2.07374319e-02 -1.83645741e-03 -3.40291671e-03 -7.56012602e-03
      -1.66673902e-02 -5.63418260e-03 -3.12280320e-02 -2.28136852e-02
      -1.69859137e-02 3.63176246e-03 6.63352478e-03 1.96871217e-02
      1.78721119e-02 1.98399760e-02 8.96637328e-03 -7.11573008e-03
      -1.68576650e-02 -1.35798436e-02 -2.22760078e-04 1.79862473e-02
      1.60631221e-02 1.63400676e-02 2.68404540e-02 2.68273298e-02
      1.90575197e-02 1.30751375e-02 1.34283933e-03 1.57592110e-02
      -1.54175377e-03 7.20281852e-03 -7.13867508e-03 -4.47191671e-02
      -1.55524360e-02 -5.13452664e-02 -6.40124753e-02 -2.99927518e-02
      -6.12724712e-03 2.83045638e-02 2.43081022e-02 1.57848150e-02
      1.19264759e-02 7.45441590e-04 -6.18323125e-03 3.30531225e-03
      -5.76738617e-04 2.04239972e-02 3.71982693e-03 -2.91873235e-04
      -1.71433043e-04 6.23057457e-03 6.92495983e-03 1.68658216e-02
      -6.06702035e-03 -1.17487228e-02 -1.60564634e-03 -2.04084278e-03
      8.78631545e-04 1.01660157e-03 2.12588049e-02 1.11809727e-02
      4.91125276e-03 -1.61821637e-02 -8.53076112e-03 -6.61289552e-03
      1.23810964e-02 5.36866346e-03 -4.57219314e-03 -2.32248753e-03
      4.12701257e-03 2.92066508e-03 -1.47866411e-02 -1.36502329e-02
      3.37630138e-03 5.05791279e-03 4.03813878e-03 -3.27502238e-03
      2.15362404e-02 6.04649214e-03 -1.86322164e-02 -2.86762957e-02
      -1.15627078e-02 3.57490615e-03 5.76028368e-04 1.18602288e-03
      2.46868096e-03 1.93191003e-02 -6.33576373e-03 6.12045126e-03
      9.50481481e-05 -3.35054967e-04 -7.81773822e-04 3.45505745e-04
      -4.13151929e-06 4.38157411e-04 4.25381586e-03 -2.04761326e-02
      -1.54797628e-03 -1.76138768e-04 -3.81549908e-05 -7.53710992e-05
      3.87344928e-03 1.69966999e-03 3.68809584e-03 2.57991124e-02
      -1.31193112e-04 2.22481252e-03 -2.87573296e-03 -1.35121366e-03
      3.45691829e-03 1.29817997e-03 3.09733237e-04 8.74810212e-04
      9.21174511e-03 -1.90229528e-02 -1.93074474e-03 -8.79627885e-04
      -1.78085684e-04 1.07565871e-03 8.97056889e-05 5.70519296e-06
      -6.34654862e-05 -1.65622646e-03 -2.76909373e-03 -3.16005782e-03
      1.15019582e-04 1.45775033e-04 1.78105038e-04 0. 0. 0.
      -1.10971187e-05 2.19446141e-03 -1.07457818e-05 0. 0. 0.
      1.78400151e-04 -2.60045126e-05 1.03148188e-04 1.16390875e-03
      -2.76909373e-03 -2.49366253e-03 -4.28741987e-05 -1.84919481e-05
      1.12845017e-04 2.22627932e-06 0. 0. -3.44631881e-05 1.89091393e-03
      3.46651213e-05 0. 0. 2.22627932e-06 0. 0. 0. 0. 0. 0. 0. 0. 0. 0.
      0. 0. 0. 0. 0. 0. 0. 0. 0. 0. 0. 0. 0. 0. 0. 0. 0. 0. 0. 0. 0. 0.
      0. 0. 0. 0. 0. 0. 0. 0. 0. 0. 0. 0. 0. 0. 0. 0. 0. 0. 0. 0. 0. 0.
      0. 0. 0. 0. 0. 0. 0. 0. 0. 0. 0. 0. 0. 0. 0. 0. 0. 0. 0. 0. 0.
      2.23484982e-04 5.82991773e-03 3.26450790e-05 1.27833782e-05
      7.94813332e-06 8.54799623e-07 3.40494589e-04 -1.03328261e-03
      -9.94245347e-05 -2.99124923e-02 -1.78806484e-02 5.94106829e-03
      1.04590924e-03 2.42521940e-03 2.85361288e-03 0. 0. 2.80969653e-06
      3.27352114e-04 6.45822287e-03 2.69983229e-05 1.52934826e-05
      2.11435545e-05 3.70413159e-06 -1.36867748e-03 2.00193422e-03
      5.47532865e-04 -1.79642886e-02 -1.78806484e-02 -7.12486450e-03
      4.10393998e-03 1.18570379e-03 -8.92554119e-04 -2.13351124e-03
      -2.38085166e-03 7.01945741e-04 -2.38492824e-02 -2.71532647e-02
      1.07690049e-02 7.95742031e-03 7.06667406e-03 4.73786565e-03
      2.52289814e-03 -3.25481268e-03 2.90886778e-03 -1.63199864e-02
      -4.49377607e-04 2.70512775e-02 1.64439995e-02 1.53964162e-02
      1.62954964e-02 -2.53809360e-03 6.09563082e-04 4.68974328e-03
      -6.72420720e-03 -2.78072990e-02 -4.55291988e-03 7.73081789e-03
      1.46254874e-03 -1.54676600e-05 -7.39198120e-04 2.89653428e-03
      1.23521779e-02 3.16350907e-03 -1.63044094e-03 1.58201251e-02
      1.74566545e-02 7.73811527e-03 4.42777947e-03 2.19791606e-02
      4.44242358e-03 7.27173034e-03 -1.98841449e-02 1.38255768e-02
      -2.66501983e-03 4.46944730e-03 4.18712385e-03 2.38207933e-02
      3.35185155e-02 9.12028272e-03 1.07081805e-03 -2.42797341e-02
      -1.38455415e-02 -3.55396233e-02 -2.57418305e-02 -1.73387378e-02
      1.15904873e-02 1.12722181e-02 5.95282484e-03 6.19303808e-03
      -6.21200772e-03 1.02375038e-02 -1.10862684e-02 7.83357676e-03
      5.18692425e-03 7.93375354e-03 3.19380052e-02 -3.98082240e-03
      -1.71380676e-02 -4.54366468e-02 -1.83362141e-02 -2.01886334e-02
      -1.91595480e-02 -5.65246772e-03 1.74995363e-02 2.96910051e-02
      6.79621566e-03 4.03446145e-03 -6.42892811e-03 2.50445623e-02
      -3.70401447e-03 -9.04102903e-03 1.11799303e-03 2.61158608e-02
      1.04611954e-02 -1.44504895e-02 -3.13556232e-02 -6.50753081e-02
      -6.46087620e-03 -1.26328021e-02 -1.71918627e-02 -2.51822211e-02
      9.25264414e-03 2.87473965e-02 7.57611636e-03 -3.90145346e-03
      -2.85385493e-02 2.21202206e-02 6.95585134e-03 -1.02098221e-02
      6.75850874e-03 3.04585844e-02 4.64687031e-03 -6.76328084e-03
      -1.94223523e-02 -4.95827682e-02 3.51849990e-03 -1.66395456e-02
      -2.11780239e-02 -2.57086791e-02 1.09566981e-02 3.61331599e-03
      -6.12590043e-03 -2.27032378e-02 -5.14993779e-02 -7.96153955e-03
      6.48444099e-03 3.64086498e-03 -2.82922853e-03 6.64927112e-03
      1.12003731e-02 5.47226239e-03 2.52918131e-03 -1.47549259e-02
      -6.57608453e-03 -1.73375141e-02 2.19205697e-03 7.94615969e-03
      1.65197887e-02 -1.35992374e-03 -9.02364310e-03 -2.46075206e-02
      -2.76305787e-02 8.18115193e-04 -1.15020927e-02 -5.48117794e-03
      -4.41644946e-03 6.35859976e-03 1.70094874e-02 -6.06588612e-04
      -1.11977905e-02 -1.22567322e-02 2.32266868e-03 -4.97229444e-03
      -5.69592603e-03 -2.94592674e-03 1.14746392e-02 1.27285868e-02
      7.54699344e-03 8.96736979e-03 -6.01605838e-03 -2.63696089e-02
      -4.90664914e-02 -1.39437104e-02 -2.57286010e-03 1.29543794e-02
      3.27571183e-02 2.01067738e-02 1.95703823e-02 1.45532507e-02
      4.64593172e-02 2.70294622e-02 2.63812281e-02 8.68910458e-03
      2.56887916e-02 2.11733989e-02 1.70529925e-03 -6.42260863e-03
      -3.81058306e-02 -3.47333923e-02 -5.64052165e-02 -4.41768393e-02
      -3.62914652e-02 -5.89812081e-03 3.68983634e-02 2.70405598e-02
      2.30327491e-02 7.87278824e-03 3.00173033e-02 1.21261301e-02
      1.03101293e-02 1.14232171e-02 3.33385281e-02 1.41003244e-02
      8.93326185e-04 -1.15989074e-02 -1.66998729e-02 -1.32765733e-02
      5.05314441e-03 -1.72241009e-04 -5.99816954e-03 5.78566687e-03
      1.01785408e-02 -1.56998343e-03 -9.60598886e-03 -3.92236427e-04
      -1.04396027e-02 -1.61259007e-02 -8.21582042e-03 -2.87001883e-03
      4.45293263e-03 1.51636796e-02 1.12911640e-02 -2.06380039e-02
      -3.18320617e-02 -2.12622210e-02 2.27766554e-03 -3.24574998e-03
      -8.37783143e-03 8.69199727e-03 1.50296791e-02 1.66828632e-02
      -1.08762616e-02 -9.63897724e-03 -2.03205775e-02 -1.23849267e-03
      -5.89470332e-03 2.41684006e-03 1.66351665e-02 1.04980972e-02
      2.56802607e-03 2.09237286e-03 1.55925639e-02 -1.20131234e-02
      3.40817124e-03 1.61755225e-03 2.13580835e-03 1.09812859e-02
      4.01889719e-03 8.41256580e-04 8.52030294e-04 8.72020144e-03
      -2.76267491e-02 1.81650638e-03 1.25635182e-04 3.45762441e-04
      4.51654149e-03 2.45710630e-02 7.54229771e-03 -1.10489770e-03
      2.57241656e-03 -1.47389676e-02 7.04655517e-03 8.13535228e-03
      7.39009259e-03 2.46542972e-02 1.72284897e-02 -4.85737575e-04
      -1.06615096e-03 2.61690910e-03 -2.53737085e-02 1.05238613e-02
      7.00160908e-03 3.69658577e-03 1.21488655e-02 8.19181616e-04
      1.17854790e-04 1.86049292e-04 2.21067131e-03 -4.44714725e-03
      1.43798813e-03 4.96674795e-04 8.66938863e-05 1.01266080e-03
      4.50080097e-06 2.00103003e-07 5.98782151e-07 -3.18573530e-06
      2.24609789e-03 5.61256529e-05 0. 0. 4.50080097e-06 4.92109591e-03
      -2.77550076e-03 -7.19425152e-04 -1.27048197e-03 -4.44714725e-03
      7.88326003e-03 5.63416164e-03 1.78888370e-03 3.65430280e-03
      2.63830066e-06 8.67112988e-07 2.59472267e-06 6.58987192e-05
      1.83284469e-03 1.85563968e-05 0. 0. 2.63830066e-06 0. 0. 0. 0. 0.
      0. 0. 0. 0. 0. 0. 0. 0. 0. 0. 0. 0. 0. 0. 0. 0. 0. 0. 0. 0. 0. 0.
      0. 0. 0. 0. 0. 0. 0. 0. 0. 0. 0. 0. 0. 0. 0. 0. 0. 0. 0. 0. 0. 0.
      0. 0. 0. 0. 0. 0. 0. 0. 0. 0. 0. 0. 0. 0. 0. 0. 0. 0. 0. 0. 0. 0.
      0. 0. 0. 2.39301448e-06 1.15093673e-04 6.20309589e-03
      8.15969179e-06 1.87820606e-05 6.20476158e-06 1.16058754e-06
      1.68718150e-04 2.79561034e-03 3.06976796e-03 1.85757421e-03
      -1.32378601e-02 4.91953874e-03 2.49594031e-03 1.10322982e-03
      3.69305169e-04 0. 0. 1.09885241e-06 9.20963794e-05 6.19365787e-03
      1.05459629e-04 1.67530288e-05 0. 0. -1.93636734e-02
      -2.59376597e-02 -4.87671047e-03 -3.06046568e-03 -1.32378601e-02
      1.72142461e-02 -3.23950825e-03 -1.53195066e-02 -3.09158005e-02
      4.62646550e-03 2.78668618e-03 6.80494867e-03 6.76379818e-03
      -1.68721713e-02 6.70196954e-03 4.26553143e-03 2.67954776e-03
      6.75683189e-03 1.30835399e-02 7.95435999e-03 1.22141205e-02
      6.07516151e-03 1.37503464e-02 1.95664689e-02 1.68114826e-02
      1.42991962e-02 1.66967884e-02 -2.29860973e-02 -1.53085627e-02
      1.05639105e-03 1.87930092e-03 -1.47057427e-02 1.22447871e-02
      -3.83139937e-04 -7.70154223e-03 -2.11472772e-02 -7.47335749e-03
      -6.57121511e-03 2.09746812e-03 -1.45307658e-02 8.30472820e-03
      -8.94557778e-03 1.91858644e-03 2.44012359e-03 -3.89259751e-03
      1.45422146e-02 5.87921264e-03 5.16411010e-03 -1.13464808e-02
      5.30500151e-03 -1.24478957e-03 1.64368916e-02 1.76500827e-02
      1.91910304e-02 3.12359501e-02 -5.25744217e-05 -1.77620780e-02
      -4.23315093e-02 -3.41711612e-03 -1.01377172e-02 9.12141148e-03
      1.83365662e-02 3.38814743e-02 5.76235680e-03 -5.56018529e-03
      -5.52308327e-03 -4.12944220e-02 -1.70234647e-02 -4.39837687e-02
      1.97206647e-03 5.83115639e-03 1.19797857e-02 2.41568182e-02
      -1.06579566e-03 -2.42118002e-03 -4.19513769e-02 -1.13771241e-02
      -1.25295045e-02 9.82196629e-03 1.44045483e-02 2.46435422e-02
      2.90666800e-02 1.13395769e-02 -5.28971804e-03 -3.40416953e-02
      1.70726161e-02 4.65871388e-04 -2.69876234e-03 1.95364375e-02
      3.54433022e-02 1.13466531e-02 -2.76505505e-03 -1.79736800e-02
      -5.04973717e-02 -5.14520938e-03 -2.37328205e-02 -2.65080631e-02
      -2.38733068e-02 1.87393595e-02 2.96475794e-02 1.02460776e-02
      4.32780012e-03 -1.92218535e-02 8.22480675e-03 -6.15427410e-03
      1.31929442e-02 2.26958189e-02 3.27578634e-02 1.89900380e-02
      6.48710085e-03 -2.37517664e-03 -3.57931517e-02 -5.81138115e-03
      -1.97097063e-02 1.00657381e-02 -4.54474066e-04 2.21130084e-02
      1.28991762e-03 -1.24617796e-02 -3.10246330e-02 -2.71678474e-02
      -9.50825959e-03 -2.44923402e-02 -1.56155834e-02 -5.63816912e-03
      9.35281720e-03 7.45107001e-03 7.50334177e-04 -1.22119533e-02
      -1.43261952e-02 -1.88730806e-02 -1.73454564e-02 -3.95327285e-02
      -9.87392850e-03 6.66235201e-03 9.23026167e-03 2.05102633e-03
      8.81632615e-04 2.26057391e-03 3.82967782e-03 -8.93609133e-03
      2.56450027e-02 6.53090654e-04 1.09319249e-02 1.38227073e-02
      1.97232272e-02 1.92153268e-02 1.44251622e-02 9.63884499e-03
      6.94306754e-03 -2.04157494e-02 -6.67785935e-05 1.31903132e-02
      2.02757008e-02 9.73682106e-03 1.03008794e-02 -3.87734221e-03
      -3.38052288e-02 -7.38017336e-02 -5.08209653e-02 -7.58276368e-03
      1.10899219e-02 3.65853161e-02 2.63803378e-02 1.87696945e-02
      1.38109978e-02 4.98214848e-02 1.16017656e-02 2.03639176e-02
      1.39001347e-02 2.53844280e-02 3.61100249e-02 3.54630500e-02
      3.29428576e-02 1.86730288e-02 -2.06851009e-02 -6.25708476e-02
      -5.13765402e-02 4.78588231e-03 2.54204962e-02 4.71483544e-02
      3.44188251e-02 3.12265363e-02 1.51548646e-02 1.88105684e-02
      -2.00560745e-02 2.04442982e-02 2.23538075e-02 3.91027182e-02
      1.73474215e-02 1.28844213e-02 -1.48686767e-02 -2.49921847e-02
      -2.37671770e-02 -1.82778910e-02 -1.22540565e-02 -1.05977729e-02
      1.35793991e-03 2.45770141e-02 1.60281379e-02 -3.35519505e-03
      1.45022629e-03 -3.32812630e-02 3.21758038e-04 -9.79823805e-03
      -3.93538969e-03 1.87383946e-02 1.39197661e-02 1.38357216e-02
      -1.72925345e-03 -2.54165642e-02 -3.45745385e-02 -2.61849631e-02
      -1.84944365e-02 -1.12369014e-02 -8.77943705e-04 4.85080257e-02
      2.57687122e-02 8.49106535e-03 2.10222993e-02 -2.17581820e-02
      5.33746602e-03 -1.06101437e-02 -9.95403342e-03 3.00177187e-02
      2.63707582e-02 7.22427201e-03 1.67457992e-03 3.79463867e-03
      -2.45905928e-02 5.76383481e-03 7.04618357e-03 7.40248011e-03
      2.40952540e-02 1.60770416e-02 -1.57920690e-03 -4.80199640e-04
      3.14129540e-03 -2.82822214e-02 7.18841841e-03 7.14281667e-03
      5.49136102e-03 1.01636751e-02 3.58695202e-02 1.43164713e-02
      8.23899917e-03 1.50403436e-02 -1.14600118e-02 3.40190134e-03
      5.00846282e-03 9.12348647e-03 3.21334489e-02 1.44255152e-02
      5.70492521e-05 1.18483801e-03 5.06262528e-03 -2.70364210e-02
      6.07553590e-03 4.11929330e-03 5.58897248e-03 1.17914006e-02
      5.35129244e-03 -8.45839921e-03 -3.27712391e-03 6.99424185e-04
      -3.94108240e-03 6.21478632e-03 5.46494359e-03 3.50150280e-03
      4.12397506e-03 7.68995676e-07 3.18241945e-07 9.52297682e-07
      5.92358047e-05 2.25008349e-03 3.84562118e-05 5.84105408e-07
      5.69180507e-08 7.68995676e-07 4.06072149e-03 -5.47011383e-03
      -2.28741951e-03 1.18359004e-03 -3.94108240e-03 7.92210083e-03
      1.62612111e-03 8.71798082e-04 4.19460097e-03 3.32382456e-06 0. 0.
      6.00893727e-05 1.84854073e-03 9.02203828e-05 4.34786853e-06
      8.53770814e-07 3.32382456e-06 0. 0. 0. 0. 0. 0. 0. 0. 0. 0. 0. 0.
      0. 0. 0. 0. 0. 0. 0. 0. 0. 0. 0. 0. 0. 0. 0. 0. 0. 0. 0. 0. 0. 0.
      0. 0. 0. 0. 0. 0. 0. 0. 0. 0. 0. 0. 0. 0. 0. 0. 0. 0. 0. 0. 0. 0.
      0. 0. 0. 0. 0. 0. 0. 0. 0. 0. 0. 0. 0. 0. 0. 0. 0. 1.01518822e-06
      5.76368257e-06 4.83767471e-05 6.15414558e-03 1.91657440e-04
      1.81708367e-06 0. 0. -1.35319298e-02 -2.02994868e-02
      -4.39510029e-03 4.66280524e-03 -1.18578356e-02 -2.66248913e-04
      -3.30603519e-03 -1.23826154e-02 -2.56898943e-02 0. 5.30108719e-06
      1.71018419e-05 -5.04894615e-06 5.82672423e-03 2.16517365e-04 0. 0.
      0. -2.29771947e-03 -4.73763375e-03 1.18837703e-03 -6.17856439e-03
      -1.18578356e-02 -1.06487414e-02 -1.40118122e-03 -3.76362004e-03
      -6.11692388e-03 -5.10035735e-03 -8.29575211e-03 2.87126028e-03
      1.34380301e-02 -1.32871438e-02 -1.64401589e-03 -1.84202846e-03
      -4.79710381e-03 -1.59239694e-02 5.18655125e-03 -2.06479523e-03
      8.44169222e-03 -9.40498337e-03 -6.07914943e-03 -2.33861730e-02
      -7.45713594e-04 3.10464529e-03 1.77291967e-03 7.20237056e-03
      -6.25991437e-04 5.74026443e-03 9.65556037e-03 -1.24744102e-02
      -6.65332237e-03 -2.09096121e-03 -1.94972474e-03 1.36859529e-03
      2.55697463e-02 1.06331492e-02 1.91738773e-02 1.71004119e-03
      -8.20481218e-03 -2.97318213e-02 -1.27855293e-03 8.10170826e-03
      1.49148535e-02 1.13705946e-02 4.18016361e-03 1.48656853e-02
      -2.77418401e-02 -2.81531215e-02 -5.42441308e-02 -4.19876684e-04
      1.05681522e-02 2.38680746e-03 2.05698106e-02 8.18813313e-03
      1.09612411e-02 -2.14429256e-02 2.88842502e-03 -1.76427141e-02
      4.72552114e-04 1.55734029e-02 2.51491182e-02 2.83154640e-02
      1.49759203e-02 2.42625307e-02 -2.56916601e-02 -1.63725037e-02
      -5.31564355e-02 5.47377532e-03 1.40754152e-02 2.03319732e-02
      2.35277954e-02 1.38115874e-02 2.41561458e-02 -6.05066819e-03
      3.62318521e-03 -2.90325787e-02 8.85035901e-04 1.27961729e-02
      2.24743728e-02 2.03340761e-02 5.67990309e-03 6.73684757e-03
      -2.35654786e-03 1.92230120e-02 -2.90166144e-03 9.60767176e-03
      1.58820152e-02 2.17908621e-02 9.91981709e-04 3.52848205e-04
      8.70938587e-04 -6.87627867e-03 -2.05950998e-03 -1.55723346e-02
      7.92361144e-03 3.96187497e-05 -5.67265437e-04 2.19014436e-02
      6.20019902e-03 8.24411307e-03 5.93594974e-03 3.29090878e-02
      -1.98734719e-02 -1.04587683e-02 1.01516731e-02 1.76513474e-02
      3.42437578e-03 -5.29953046e-03 -2.23022350e-03 1.06900895e-03
      -9.06428602e-03 -2.51843762e-02 -2.62507051e-02 -2.34106984e-02
      -8.27805232e-03 1.97020988e-03 8.89446063e-04 4.16912790e-03
      1.02142021e-02 -4.68862522e-03 -2.04129163e-02 1.28028523e-02
      -9.06076821e-05 5.45427552e-04 7.50856567e-03 8.84947367e-03
      7.33932713e-03 2.58064400e-02 8.36131535e-03 -9.15449392e-03
      -1.52835576e-02 -7.09419092e-03 1.57498522e-03 -7.16132484e-03
      -1.82123948e-03 2.58558569e-03 9.75740887e-03 -1.19488444e-02
      -3.00191958e-02 -1.04658930e-02 -1.24216257e-02 -9.61520988e-03
      4.88489913e-03 6.15133252e-03 -2.60371831e-03 2.43587028e-02
      8.93500913e-03 2.65131675e-04 -7.62555841e-03 -3.03924340e-03
      2.66482821e-03 1.89654715e-02 2.35582180e-02 1.70584656e-02
      2.73583569e-02 -1.68077443e-02 -6.03994168e-02 -3.10480781e-02
      1.19678047e-03 1.52069386e-02 2.92216800e-02 2.21985802e-02
      1.85324568e-02 1.21530786e-03 3.51419225e-02 -6.53940439e-03
      1.71498898e-02 1.50917368e-02 1.94648616e-02 1.89509578e-02
      2.15880275e-02 1.05573963e-02 3.12255379e-02 -1.64095052e-02
      -2.70731840e-02 -4.88856388e-03 1.93117782e-02 2.27927286e-02
      2.62524746e-02 1.48828784e-02 1.45497527e-02 -6.60270627e-04
      4.94227558e-03 -5.25924610e-03 2.01165080e-02 2.58949697e-02
      3.37234512e-02 2.52377824e-03 5.27029112e-03 9.83928796e-04
      -1.46993967e-02 -2.21080314e-02 -1.69062186e-02 -1.55760311e-02
      -6.78740023e-03 -7.47449184e-03 3.27137709e-02 1.51571147e-02
      6.47302065e-03 2.31206752e-02 -7.42591452e-03 -1.54949154e-03
      -1.75436810e-02 -1.08128544e-02 2.02792063e-02 1.02829468e-02
      8.44482041e-04 -6.08475041e-03 -1.88843720e-02 -3.40641104e-02
      -3.49891521e-02 -2.42797937e-02 6.52400125e-03 6.97405962e-03
      1.49087934e-02 5.29380701e-03 6.67179120e-04 3.24400235e-03
      -1.48065975e-02 -2.08136514e-02 -3.07948217e-02 -9.13518853e-03
      1.02382088e-02 2.75852885e-02 1.00042736e-02 4.41583106e-03
      9.07857064e-03 -7.33049912e-03 6.89538149e-03 -2.65470735e-04
      1.81403034e-03 2.03244984e-02 6.51677838e-03 1.77163631e-03
      5.76340477e-04 1.58670548e-04 -2.45446656e-02 4.92218230e-03
      -1.22963614e-03 -1.67757634e-03 5.40221017e-03 2.15489212e-02
      4.12426703e-03 8.45386647e-04 -4.17385995e-03 5.55683218e-04
      3.47050256e-03 -6.31838525e-03 -1.90266594e-03 1.97343491e-02
      5.48652280e-03 -8.15092280e-05 -9.70027351e-04 -6.93374081e-03
      -2.07112804e-02 1.38977787e-03 6.72589755e-04 -1.37414376e-03
      6.35580532e-03 1.61271892e-03 2.22918286e-04 -1.93975648e-04
      -3.53647425e-04 1.79295952e-04 1.13013282e-03 -7.60084530e-03
      -9.33235511e-03 1.28185307e-03 5.52582151e-06 -1.45249930e-06
      -8.88078489e-07 8.38490014e-05 2.36111507e-03 1.31665274e-05
      2.19782532e-06 5.39193195e-07 5.52582151e-06 -1.34429091e-03
      -2.22248351e-03 -9.86049185e-04 -3.58564104e-03 1.79295952e-04
      -2.07867986e-03 -4.87481616e-03 -7.05737714e-03 1.57332502e-03
      5.28346709e-06 -4.24109894e-05 -4.53090215e-05 -2.05997676e-05
      2.27583153e-03 -8.30478093e-05 -1.88970698e-05 -1.47028486e-05
      4.93039488e-06 0. 0. 0. 0. 0. 0. 0. 0. 0. 0. 0. 0. 0. 0. 0. 0. 0.
      0. 0. 0. 0. 0. 0. 0. 0. 0. 0. 0. 0. 0. 0. 0. 0. 0. 0. 0. 0. 0. 0.
      0. 0. 0. 0. 0. 0. 0. 0. 0. 0. 0. 0. 0. 0. 0. 0. 0. 0. 0. 0. 0. 0.
      0. 0. 0. 0. 0. 0. 0. 0. 0. 0. 0. 0. 8.07301876e-06 2.41574617e-05
      -3.02656122e-06 5.97034441e-03 2.12863160e-04 0. 0. 0.
      -2.73048831e-03 3.88646824e-03 3.00377398e-03 -7.14292843e-03
      -1.32264383e-02 -2.98626884e-03 -3.05375573e-03 -5.08367596e-03
      -3.61253251e-03 0. 6.33765876e-06 1.89646198e-05 5.66558920e-05
      5.68711711e-03 4.28764877e-04 0. 1.16222043e-06 1.59228637e-06
      -2.02499069e-02 -2.07589590e-03 2.34294171e-03 1.24781451e-03
      -1.32264383e-02 -1.19525776e-03 -2.63916142e-03 -1.14452280e-02
      -1.62236113e-02 5.19242790e-03 2.57436209e-03 4.40498255e-03
      9.55730770e-03 -2.67411787e-02 4.35674068e-04 -4.46693914e-04
      -7.27349019e-04 5.46808820e-03 1.90339945e-02 5.64848492e-03
      1.01548582e-02 9.73200984e-03 -1.50288530e-02 -1.70509964e-02
      5.64094214e-03 1.20530240e-02 2.37760451e-02 -9.45214834e-03
      -1.00595888e-03 4.48560715e-03 1.26426164e-02 -2.26461291e-02
      1.25088720e-02 1.01410542e-02 2.29744753e-03 -1.89605611e-03
      7.61965173e-04 -6.70356071e-03 3.43825179e-03 6.71929820e-03
      -9.28094052e-03 2.47421302e-02 2.54812539e-02 1.81693062e-02
      1.10301971e-02 1.50353154e-02 -1.79080898e-03 -1.81738788e-03
      -2.41721533e-02 -3.54187824e-02 -4.47547771e-02 8.43879010e-04
      1.55944778e-02 1.93043016e-02 9.04087443e-03 -6.00118702e-03
      4.87342197e-03 -9.44912154e-03 -3.35789169e-03 -2.18698028e-02
      2.41893926e-03 1.37836458e-02 1.86479930e-02 -6.80675544e-03
      -1.91564281e-02 -1.07923178e-02 -2.20632162e-02 -2.96887606e-02
      -9.37914848e-03 1.73350163e-02 1.64088011e-02 1.77171193e-02
      1.80998221e-02 -5.34115313e-03 3.56243714e-03 4.85031074e-03
      9.98871494e-03 -4.64414665e-03 3.06991376e-02 2.52344701e-02
      2.50500739e-02 2.43731290e-02 1.17445346e-02 1.60416849e-02
      1.17033562e-02 4.18411680e-02 -1.44206900e-02 -6.13702647e-03
      1.63104571e-02 2.33672466e-02 1.06640747e-02 3.40863853e-03
      6.31958246e-03 -1.28659569e-02 -3.48277017e-02 -5.86211346e-02
      -2.44629122e-02 -1.74348094e-02 -1.35046535e-03 2.62738317e-02
      1.60315726e-02 2.11351551e-02 2.10249647e-02 4.99945283e-02
      1.31616089e-02 3.10430247e-02 2.64982674e-02 3.04852705e-02
      2.11227331e-02 1.35006066e-02 1.97664294e-02 -7.20848097e-03
      -4.18992750e-02 -6.01003878e-02 -8.61107023e-04 1.42084230e-02
      1.65705029e-02 1.10647874e-02 8.05148482e-03 1.09894918e-02
      6.41983049e-03 -1.57968719e-02 -3.23716141e-02 -1.01176659e-02
      -1.49319042e-03 4.83280001e-03 1.91266146e-02 1.26880100e-02
      5.83455758e-03 2.07756981e-02 1.01011829e-03 -9.80594568e-03
      8.19792133e-03 1.98252723e-02 2.36041564e-02 1.88831482e-02
      8.74384679e-03 9.63944755e-03 2.93331128e-03 -2.43856572e-02
      -4.48184088e-02 -1.01041803e-02 1.01367338e-02 1.60292760e-02
      1.83179434e-02 1.10601261e-02 6.58187177e-03 1.23500703e-02
      -1.37067819e-02 -1.81948096e-02 4.30303439e-03 1.95354223e-02
      1.78629868e-02 2.11653039e-02 1.65673625e-02 -3.98058491e-03
      7.69700017e-03 -1.55963032e-02 -2.83882134e-02 -6.98416145e-04
      2.61111297e-02 3.46898399e-02 2.44142246e-02 1.20257139e-02
      8.53939075e-03 4.27171006e-04 -1.39475381e-02 -1.49175152e-02
      1.26413656e-02 2.71653514e-02 3.67739387e-02 1.62910279e-02
      1.09245013e-02 7.12470908e-04 8.57488345e-03 -2.98647434e-02
      -3.56505997e-02 -9.15262476e-03 1.38936331e-02 2.20907424e-02
      1.76400319e-02 9.17192455e-03 8.13031103e-03 4.17308696e-03
      -1.49547542e-02 -2.68481523e-02 8.31141509e-03 2.21892260e-02
      3.28208618e-02 1.27773844e-02 -2.35997140e-03 -1.25393365e-02
      -1.81093831e-02 -3.87866832e-02 -2.63512693e-02 -1.22818751e-02
      1.30054755e-02 2.30810661e-02 1.11514749e-02 -6.33876771e-04
      -2.56664050e-03 9.59503697e-04 -1.01325782e-02 -7.58400094e-03
      -1.16411373e-02 -5.98001876e-04 1.40260411e-02 8.34546890e-03
      -6.05154922e-03 -1.92039646e-02 -3.10985260e-02 -3.45577523e-02
      -2.91256141e-02 -1.21433707e-02 2.33187777e-04 1.98127571e-02
      1.11288382e-02 2.16233591e-03 -3.75401415e-03 4.35654307e-03
      -1.25112580e-02 -9.16880183e-03 -3.65912775e-03 1.31785376e-02
      1.59623157e-02 1.07562998e-02 -1.99423797e-04 8.56021419e-04
      1.06465467e-03 -4.75140940e-03 -5.94742224e-03 -4.28890344e-03
      3.04463925e-03 1.71925910e-02 -4.13148693e-04 7.67455349e-05
      7.48441846e-04 -2.47563631e-03 -1.93018336e-02 -8.14105384e-03
      -7.97902321e-05 5.75446873e-04 1.35021470e-02 8.53346754e-03
      6.28323935e-04 1.78418506e-03 9.58414562e-03 -7.88254663e-03
      -2.05057114e-03 -2.18176423e-03 5.97925717e-03 1.59482975e-02
      -4.39940428e-04 4.54411143e-04 1.68038777e-03 4.90265246e-03
      -1.75634567e-02 -5.71445329e-03 -7.75724649e-04 -1.92989275e-04
      1.20099168e-02 -5.28888637e-03 -9.29775124e-04 7.13367626e-05
      -1.61897449e-03 -1.69438508e-03 -7.52049126e-03 -2.10442813e-03
      -4.26768977e-03 6.60969131e-03 1.18333787e-06 -3.14501704e-05
      -3.85287749e-05 -8.11354985e-05 2.76799011e-03 -8.65176553e-05
      -6.14114397e-05 -4.29786633e-05 2.90183351e-07 -5.88072371e-03
      -9.47653491e-04 1.22878840e-03 2.84540746e-03 -1.69438508e-03
      -6.37599826e-03 -9.57356475e-04 -5.29721798e-03 7.50044454e-03 0.
      -1.27682142e-06 -2.05515744e-06 -1.52910197e-05 2.14795698e-03
      -6.75457559e-05 -3.83288825e-05 -2.42883561e-05 -4.05979335e-07 0.
      0. 0. 0. 0. 0. 0. 0. 0. 0. 0. 0. 0. 0. 0. 0. 0. 0. 0. 0. 0. 0. 0.
      0. 0. 0. 0. 0. 0. 0. 0. 0. 0. 0. 0. 0. 0. 0. 0. 0. 0. 0. 0. 0. 0.
      0. 0. 0. 0. 0. 0. 0. 0. 0. 0. 0. 0. 0. 0. 0. 0. 0. 0. 0. 0. 0. 0.
      0. 0. 0. 0. 0. 0. 2.71353019e-06 8.11988502e-06 1.44822567e-04
      5.28932037e-03 4.25142498e-04 1.25979450e-05 1.07971546e-05
      9.02462216e-06 -2.37408075e-02 -1.36330565e-02 -7.64270872e-03
      -2.02855188e-02 -2.05937889e-03 -3.96234449e-03 -2.64662271e-03
      -1.43651580e-02 -1.98059976e-02 0. 1.14097047e-05 3.41420491e-05
      2.60766334e-04 5.93577279e-03 1.73710883e-04 3.57381250e-05
      1.65704932e-05 7.01915087e-06 4.98947455e-03 4.10119025e-03
      -1.17016500e-02 -3.21689621e-02 -2.05937889e-03 7.06861541e-03
      5.56637533e-03 4.30053659e-03 6.38435315e-03 -9.93443560e-03
      -5.14296861e-03 -7.59604096e-04 -7.82244094e-03 -2.92963106e-02
      6.59465464e-03 7.76774902e-03 -4.44504753e-04 -2.01691804e-03
      2.27222336e-03 -8.99104867e-03 -1.76334521e-04 -3.63008236e-03
      -1.07717244e-02 2.11006068e-02 2.07972880e-02 1.48456721e-02
      9.53260902e-03 1.94777157e-02 9.69282072e-03 -9.58906370e-04
      -1.29153039e-02 -2.33958717e-02 1.01320883e-02 7.73665635e-03
      7.75361713e-03 1.68642234e-02 3.54517847e-02 1.40313599e-02
      5.79045014e-03 -3.70073388e-03 -4.59624687e-03 1.85804535e-02
      2.27210913e-02 2.81152967e-02 3.12817767e-02 -2.63390597e-03
      -1.62348542e-02 -1.11657996e-02 -1.35653997e-02 -2.16580462e-02
      7.29684578e-03 1.07250251e-02 7.76170893e-03 6.37348229e-03
      1.42317200e-02 -5.09189069e-03 -5.88841736e-03 -1.14223119e-02
      -6.13360200e-03 -1.46599431e-02 2.06733085e-02 1.37384599e-02
      1.57316606e-02 2.09637657e-02 2.99711968e-03 -6.35421975e-03
      -1.60881802e-02 -2.21070983e-02 -1.82050082e-03 1.30080469e-02
      1.72945634e-02 2.04176698e-02 1.67969596e-02 5.90093108e-03
      3.12618166e-03 -1.54505866e-02 -7.18016643e-03 -2.20257174e-02
      9.36474744e-03 9.12150741e-03 1.82658564e-02 1.99496467e-02
      6.78531127e-03 1.61761846e-02 1.30964946e-02 3.50526571e-02
      3.36086308e-03 2.23440211e-02 2.45721899e-02 2.66935732e-02
      1.77473929e-02 -9.13917273e-03 6.70288573e-04 -2.41300967e-02
      -4.85141128e-02 -5.92965223e-02 -7.85898976e-03 9.89771448e-03
      1.25984801e-02 2.21437495e-02 1.11904508e-02 1.98449474e-02
      1.69378947e-02 3.65690812e-02 8.36175960e-03 2.20272951e-02
      2.16651596e-02 2.72086114e-02 2.12255046e-02 -8.56304949e-04
      1.91103795e-03 -1.70892384e-02 -3.20495814e-02 -4.00214121e-02
      7.47423712e-03 2.33990364e-02 2.14830339e-02 1.51972091e-02
      2.47878209e-03 8.28709826e-03 6.05612993e-03 -1.61208268e-02
      -4.42417301e-02 -1.81259832e-03 1.61466654e-02 1.46453334e-02
      1.71102118e-02 1.24570988e-02 1.33275399e-02 7.92193227e-03
      -2.83845095e-03 -1.84325073e-02 7.56279426e-03 2.01036204e-02
      1.62454005e-02 1.70965809e-02 1.01097086e-02 1.64752379e-02
      1.52340345e-02 -1.57976605e-03 -3.82169597e-02 8.49286932e-03
      1.94324758e-02 1.92811824e-02 1.52702108e-02 1.21329688e-02
      1.70905702e-02 1.00913905e-02 -8.60473886e-03 -2.92807985e-02
      7.52980914e-03 1.80371329e-02 1.80528238e-02 2.07828823e-02
      1.45181371e-02 1.19587500e-02 -1.65532585e-02 -1.25586893e-02
      -2.60121282e-02 -1.17823454e-02 1.47557203e-02 2.19974238e-02
      3.28133814e-02 2.35456023e-02 1.62933264e-02 -3.93548689e-04
      -3.00720036e-02 -3.11108753e-02 1.18603380e-02 2.13093683e-02
      2.52691694e-02 1.29187759e-02 2.71828426e-03 -8.64810403e-03
      -2.25028377e-02 -1.47287743e-02 -2.93703731e-02 -1.22194539e-03
      1.19710164e-02 1.19778719e-02 3.00291982e-02 2.06980370e-02
      1.07092336e-02 -8.21272843e-03 -1.49072036e-02 2.54615385e-04
      1.28173092e-02 2.06225831e-02 2.28845943e-02 2.70824246e-02
      8.67951103e-03 -1.26339877e-02 -2.97691207e-02 -4.38167974e-02
      -1.46299461e-02 -4.03211731e-03 1.04200551e-02 2.54762638e-02
      2.86972076e-02 1.36986999e-02 -1.40776311e-03 -3.91334621e-03
      -8.88693426e-03 -1.53127136e-02 -1.86324620e-03 2.37470046e-02
      2.30616480e-02 1.43384002e-02 1.02596423e-02 -7.84987491e-03
      -2.72736493e-02 -4.28534783e-02 4.43380588e-04 -6.79254578e-03
      9.37051233e-03 2.96172965e-03 1.49640040e-02 1.36720911e-02
      2.21944088e-03 -8.06176290e-03 -7.71630090e-03 -1.48807466e-02
      5.10136178e-03 8.71830899e-03 1.29018184e-02 1.58347748e-02
      4.90052812e-03 3.10751400e-03 1.01445420e-02 -4.83544962e-03
      1.90667785e-03 -4.90411930e-03 1.61619647e-03 1.80076528e-02
      5.34549914e-03 1.84373534e-03 2.24568765e-03 1.11297593e-02
      -1.97873488e-02 -8.66736227e-04 -4.31706198e-03 -2.87556369e-03
      1.19675808e-02 8.47678538e-03 4.25506942e-03 2.45394604e-03
      1.67982129e-03 1.34286552e-03 -3.29319807e-03 -8.98254476e-03
      -6.73700869e-03 7.18781119e-03 3.74381035e-03 2.23536696e-03
      2.09723623e-03 6.64774608e-03 -1.84960905e-02 -4.66124481e-03
      -8.18392914e-03 -5.97495772e-03 1.88172399e-03 -1.97290001e-03
      -1.13930239e-03 -1.98073976e-04 7.88632594e-03 2.89348187e-04
      -2.80740997e-03 -2.07817857e-03 -3.92827764e-03 9.31982708e-04 0.
      5.83373776e-07 1.74567697e-06 -4.19668004e-06 2.25133845e-03
      -1.06463840e-05 0. 0. 0. 1.19873905e-03 7.75888213e-04
      -3.31712514e-03 6.33249944e-03 2.89348187e-04 -1.25362501e-02
      -1.07144313e-02 -4.75743832e-03 -1.39409001e-03 2.13879531e-07
      1.72311218e-06 5.15620832e-06 -1.21267840e-05 1.84417330e-03
      5.83093424e-05 0. 0. 2.13879531e-07 0. 0. 0. 0. 0. 0. 0. 0. 0. 0.
      0. 0. 0. 0. 0. 0. 0. 0. 0. 0. 0. 0. 0. 0. 0. 0. 0. 0. 0. 0. 0. 0.
      0. 0. 0. 0. 0. 0. 0. 0. 0. 0. 0. 0. 0. 0. 0. 0. 0. 0. 0. 0. 0. 0.
      0. 0. 0. 0. 0. 0. 0. 0. 0. 0. 0. 0. 0. 0. 0. 0. 0. 0. 0.
      5.96262180e-06 1.78423688e-05 2.89323361e-04 5.07654855e-03
      3.13920536e-05 3.65350861e-05 1.09442772e-05 0. 5.14514325e-03
      6.02626801e-03 -1.22507289e-03 -2.35620663e-02 -1.35347405e-02
      6.95299124e-04 8.99678376e-03 2.31278641e-03 5.47789736e-03
      1.03382445e-06 4.54221026e-06 1.35920009e-05 3.42459156e-04
      6.33054180e-03 -3.79829398e-05 2.20259353e-05 6.78563765e-06
      1.03382445e-06 3.85258510e-03 1.07731589e-03 -1.01103354e-03
      -1.23373624e-02 -1.35347405e-02 -1.60556082e-02 6.80165552e-03
      5.51076792e-03 6.87513035e-03 1.06080594e-02 7.01883063e-03
      1.80325114e-05 -8.99265800e-03 -2.98032481e-02 9.09112860e-03
      7.53315957e-03 4.08009673e-03 9.29729920e-03 1.72907729e-02
      8.49386677e-03 3.63588496e-03 -6.43566390e-03 -3.48930596e-03
      2.34113112e-02 2.88389381e-02 2.20857877e-02 1.63159184e-02
      6.10112492e-03 7.52001244e-04 7.80468457e-04 -4.79566259e-03
      -2.34145653e-02 2.30813399e-03 1.03960130e-02 8.92203581e-03
      1.20371534e-02 8.96965060e-03 4.73963749e-03 1.04843825e-02
      -4.17859730e-04 -2.75456766e-03 6.92595867e-03 2.16081385e-02
      1.34321973e-02 1.50153078e-02 7.45306443e-03 -1.17160671e-03
      -9.85283777e-03 -1.91629045e-02 -1.36299459e-02 8.97967140e-04
      1.93570964e-02 1.64737515e-02 1.08648269e-02 7.41909537e-03
      -3.35457944e-03 -4.06405609e-03 -2.25347430e-02 5.18391747e-03
      -1.63310040e-02 3.92138120e-03 7.07512395e-03 1.34029249e-02
      1.24212971e-03 -4.34481399e-03 -7.27467239e-03 -1.03091272e-02
      -5.38511761e-03 -8.13790690e-03 1.53624145e-02 3.08241765e-03
      2.24627182e-03 7.75982672e-03 -2.58504017e-03 -2.61698524e-03
      -1.40993875e-02 -3.64398025e-03 -1.39240297e-02 6.70957705e-03
      3.07773426e-03 1.02431132e-02 1.09923258e-02 3.63392732e-03
      2.36223289e-03 -4.45929531e-04 2.10600793e-02 -2.09411536e-03
      1.02984682e-02 1.88988559e-02 1.61858387e-02 6.41746493e-03
      5.56948595e-04 -1.74563043e-02 -3.71628739e-02 -1.90231986e-02
      -3.30800526e-02 -1.80471241e-02 1.91096254e-02 8.99063144e-03
      6.62984932e-03 5.10492874e-03 1.00650731e-02 7.44460570e-03
      2.52156500e-02 -1.98254315e-03 1.32186981e-02 1.90436020e-02
      1.23647433e-02 1.21815142e-03 3.15584679e-04 7.32470397e-03
      -6.74348976e-03 -1.18781989e-02 -1.33349383e-02 -5.83800813e-03
      2.00256146e-02 5.76621247e-03 1.16068646e-02 9.52113420e-03
      5.11144567e-03 -1.05193267e-02 -3.29366722e-03 -4.26475406e-02
      -1.67179462e-02 1.53468484e-02 1.31213954e-02 -1.85363404e-02
      -1.20426528e-02 -2.90308073e-02 -3.70855033e-02 -3.26480460e-03
      -2.99199689e-02 -2.72954516e-02 -1.46236615e-02 -2.10819226e-02
      2.23991019e-03 6.16858946e-03 1.36767058e-02 1.28506944e-02
      4.09636609e-02 1.58139248e-03 -7.87619594e-03 9.13147256e-03
      5.95958065e-03 -3.06032375e-02 -8.97866394e-03 2.33395398e-03
      2.39875726e-02 5.53365201e-02 2.83061154e-02 2.06429474e-02
      -1.20452782e-02 -2.82285064e-02 -3.55459787e-02 -5.21100163e-02
      -4.78464216e-02 -4.65356447e-02 -3.15186940e-03 -2.25592144e-02
      -2.93318331e-02 -2.10230947e-02 -2.81040575e-02 1.09831085e-02
      1.51319284e-04 -9.97209921e-03 -1.68115366e-02 -8.80559441e-03
      8.09022319e-03 1.37182036e-02 1.07961195e-02 5.82981342e-03
      -4.43259664e-02 -3.68719809e-02 -1.82771180e-02 1.74549203e-02
      4.05110568e-02 3.86130810e-02 3.53045575e-02 -7.72318989e-03
      -3.71936709e-02 -6.91416953e-03 -1.22887641e-03 8.50381888e-03
      1.49589721e-02 4.45692837e-02 5.95644712e-02 4.14060503e-02
      2.11487375e-02 -3.73792066e-03 7.27476832e-03 1.08036818e-02
      -9.86521365e-04 -8.90264753e-03 -3.27428691e-02 1.25469244e-03
      -1.70037313e-03 4.74387920e-03 -1.92530523e-03 9.00836755e-03
      1.29787121e-02 9.56053846e-03 -1.86082767e-03 -2.48975810e-02
      7.56867230e-04 1.43503360e-02 1.73782110e-02 1.15420846e-02
      -2.55089849e-02 3.25504399e-04 -1.53071259e-03 1.01871451e-03
      8.39607208e-04 2.63167322e-02 1.45391934e-02 9.13065765e-03
      -1.55983185e-02 -1.15280291e-02 -4.92492411e-03 -3.28659359e-03
      -6.81681652e-03 -2.39657741e-02 1.53584247e-02 5.98718971e-03
      1.67186558e-02 -1.61451800e-03 3.42497788e-03 1.28302444e-03
      1.12099259e-03 -2.84589990e-03 -5.01512724e-04 -2.94419704e-03
      -2.39872537e-03 2.79147527e-04 4.83991206e-03 2.28875037e-03
      9.54337185e-04 6.48171583e-04 1.33476011e-03 -1.71757303e-02
      -5.95367700e-03 -6.30615233e-03 -2.10573175e-03 2.21114978e-03
      -3.62515030e-03 -4.36860975e-03 -3.23106535e-03 -6.84635714e-03
      1.19203422e-03 8.72750208e-03 2.07243599e-02 1.12633565e-02
      6.63808547e-04 7.09977408e-04 -1.46829104e-03 -1.28869154e-03
      -4.48608631e-03 -1.49918366e-02 5.17329620e-03 9.12493374e-03
      4.35344735e-03 2.16426258e-03 7.66376033e-04 4.05005267e-04
      -9.64101229e-04 2.04360532e-03 7.16383744e-04 -1.23038739e-02
      -1.02793202e-02 -2.28587445e-03 1.88069593e-04 9.31608326e-07
      1.02895399e-06 3.07901655e-06 -2.28554745e-05 2.18132767e-03
      3.99556193e-05 1.17520983e-06 0. 9.31608326e-07 5.13691572e-04
      4.68659273e-05 1.26922925e-04 -4.14827466e-03 7.16383744e-04
      -3.45297856e-03 -1.31544261e-03 8.05227493e-04 6.49597263e-04
      7.24584254e-07 6.80956475e-07 3.46448087e-06 -3.09120114e-05
      1.89721561e-03 4.73691362e-05 3.47121909e-06 0. 7.24584254e-07 0.
      0. 0. 0. 0. 0. 0. 0. 0. 0. 0. 0. 0. 0. 0. 0. 0. 0. 0. 0. 0. 0. 0.
      0. 0. 0. 0. 0. 0. 0. 0. 0. 0. 0. 0. 0. 0. 0. 0. 0. 0. 0. 0. 0. 0.
      0. 0. 0. 0. 0. 0. 0. 0. 0. 0. 0. 0. 0. 0. 0. 0. 0. 0. 0. 0. 0. 0.
      0. 0. 0. 0. 0. 3.05515118e-06 2.85668193e-06 1.06487954e-04
      3.61230894e-04 4.25168080e-03 -3.39887556e-05 7.41594795e-06
      1.21365601e-05 2.52445625e-05 2.09900900e-03 1.28106342e-03
      2.28945701e-03 -1.06325988e-02 -2.37199329e-02 -4.88154264e-03
      2.88093160e-03 5.77132730e-03 5.76022873e-03 2.37622862e-06
      6.22677760e-07 2.51176796e-04 7.04550126e-04 6.31130813e-03
      2.55559644e-05 1.45426429e-05 3.50434057e-05 6.27843110e-05
      2.43425905e-03 7.58295553e-03 1.28080575e-02 -1.02452487e-02
      -2.37199329e-02 7.29603344e-04 1.13393841e-02 9.38695204e-03
      5.43083763e-03 4.20162128e-03 1.30864431e-03 2.97740661e-03
      -1.13864914e-02 -3.40928547e-02 7.07243918e-04 7.25910952e-03
      1.10101607e-02 1.17651373e-02 1.03328694e-02 3.52501962e-03
      9.31644626e-03 -4.26638220e-03 -2.07451843e-02 -1.12676024e-02
      1.25069320e-02 1.82059556e-02 2.37436276e-02 4.91714571e-03
      8.92679766e-03 1.59618706e-02 -8.09417944e-03 -2.94949636e-02
      -1.31629978e-03 1.68046299e-02 1.64394807e-02 1.10397981e-02
      1.65437441e-02 1.40517456e-02 2.34861765e-02 1.87944081e-02
      -1.76440291e-02 -1.16878636e-02 2.34818757e-02 3.05678230e-02
      2.59966124e-02 -1.14134944e-03 -7.70782353e-03 -4.21227701e-03
      -6.85212482e-03 -1.80370186e-03 -2.56874338e-02 3.49396095e-03
      1.94226410e-02 1.52218742e-02 1.26829613e-02 5.83760859e-03
      -1.52155815e-03 -6.06921222e-03 -1.26002505e-02 -2.11520661e-02
      1.85063912e-03 1.56086972e-02 2.09625065e-02 1.44371437e-03
      -1.37244409e-03 2.70500313e-03 -4.10536624e-04 -3.42799653e-03
      -4.45358381e-02 -1.08774910e-02 1.70527305e-02 1.14014596e-02
      4.21415316e-03 1.73506350e-03 -2.02246662e-03 -9.85266082e-03
      -1.59695596e-02 -2.93138884e-02 -1.57738421e-02 1.32690929e-02
      1.11723337e-02 7.92331994e-03 2.28886679e-03 -5.22134651e-04
      1.24248757e-03 -1.39725022e-03 -2.61470266e-02 -5.59498044e-03
      8.77880957e-03 1.59480367e-02 -3.56484205e-03 -9.84549616e-03
      3.42521234e-03 -4.27805400e-03 -6.49471302e-03 -8.71639885e-03
      -3.93910334e-03 5.89396292e-03 1.70993840e-03 1.69039294e-02
      3.86764365e-03 -1.14761656e-02 -7.85048399e-03 -9.44270846e-03
      -2.72003133e-02 -2.22518556e-02 1.73123386e-02 1.96296256e-02
      1.04878712e-02 3.37104453e-03 -7.10593909e-03 2.78312527e-03
      -1.27375824e-02 -5.59321698e-03 3.48141941e-04 2.29225662e-02
      1.12617668e-02 -2.87510697e-02 -1.82596035e-02 -2.65905447e-03
      1.45674683e-03 -7.88575597e-03 -1.52710751e-02 -4.30288203e-02
      -2.62052380e-02 -2.62431372e-02 -5.48751950e-02 -3.57871018e-02
      -6.06035395e-03 2.52773408e-02 1.02822855e-02 2.42801085e-02
      -7.09352549e-04 -3.94726433e-02 -5.88686578e-02 3.22804041e-03
      3.08067724e-03 -1.69955450e-03 1.21453134e-02 -6.06005592e-03
      -2.04014732e-03 -9.58686136e-03 4.00762353e-03 1.80072815e-03
      1.60781492e-04 8.80588964e-03 7.72937899e-03 4.18067202e-02
      1.84823312e-02 3.98398414e-02 1.35451593e-02 -4.62336885e-03
      -3.30169499e-03 -5.46103977e-02 -3.67849097e-02 -1.74614992e-02
      6.07340178e-03 2.89877848e-04 3.62393968e-02 6.18356979e-03
      -2.97645405e-02 -5.61460778e-02 -3.78426947e-02 -2.07711253e-02
      -1.96829457e-02 -1.44678606e-02 -2.09959708e-02 2.52035316e-02
      3.69387912e-03 -2.31207916e-04 -3.60746570e-02 -4.04698029e-03
      -4.22085752e-04 4.34693974e-03 2.43304130e-02 6.74229534e-03
      3.88104618e-02 1.73731800e-02 -2.40096310e-03 -2.06759851e-03
      -7.20651401e-03 -8.59216508e-03 -9.20704100e-03 -1.77666568e-03
      1.32293056e-03 2.68367678e-02 1.61983538e-02 6.87487132e-04
      -5.45345014e-03 -2.66593397e-02 -1.38711417e-02 -1.26084816e-02
      -2.93104188e-03 -3.20224091e-03 2.86206901e-02 1.60513576e-02
      1.60281062e-02 -1.56991500e-02 -1.49503872e-02 -1.36674419e-02
      -1.03173405e-02 -1.21266590e-02 -3.78033072e-02 8.58893897e-03
      1.79710053e-02 2.17122026e-02 -3.64818680e-03 -5.78221120e-03
      -6.84710126e-03 2.85645318e-03 3.68204759e-03 -3.40476166e-04
      4.20137942e-02 3.38126123e-02 1.43874139e-02 -5.46623114e-03
      -1.30738867e-02 -5.56515809e-03 9.85456537e-03 -9.79150273e-03
      -2.35006884e-02 1.69448126e-02 2.74779685e-02 1.50300981e-02
      -1.66011453e-02 -8.02795589e-03 -4.29079030e-03 -1.33941765e-03
      -2.19247420e-03 -7.57411029e-03 9.25511029e-03 2.24770512e-02
      1.21452343e-02 -3.14096198e-03 -1.10677106e-03 -1.85521250e-03
      -5.96895581e-04 5.56919258e-03 -2.89624967e-02 5.84727339e-03
      1.16497045e-02 4.78724483e-03 1.01382623e-03 -3.35754361e-03
      -1.24459912e-03 1.81196185e-04 -3.86470958e-04 -8.05643480e-03
      1.00156777e-02 2.18935311e-02 1.02955028e-02 -1.96422660e-03
      -3.27734015e-04 -1.16549060e-03 -1.19278941e-03 1.61287040e-02
      -2.65145209e-02 8.50839261e-03 1.69327781e-02 4.56494140e-03
      4.20387078e-04 3.84154730e-04 -1.69613879e-04 -1.51494251e-05
      6.03959104e-03 -5.65901026e-03 -2.07924563e-03 8.50472483e-04
      1.04882196e-03 5.93856734e-04 0. 8.45560635e-08 1.56214412e-06
      1.42839226e-05 1.77777314e-03 5.60628141e-05 1.34710103e-06 0. 0.
      1.84558405e-04 -2.42786482e-04 -5.76614344e-04 2.05428246e-02
      -5.65901026e-03 -5.33855200e-06 5.47914486e-03 1.73969637e-03
      5.35171188e-04 0. 0. 8.72747350e-08 2.24315707e-04 1.51426287e-03
      1.05593834e-04 1.05193067e-05 0. 0. 0. 0. 0. 0. 0. 0. 0. 0. 0. 0.
      0. 0. 0. 0. 0. 0. 0. 0. 0. 0. 0. 0. 0. 0. 0. 0. 0. 0. 0. 0. 0. 0.
      0. 0. 0. 0. 0. 0. 0. 0. 0. 0. 0. 0. 0. 0. 0. 0. 0. 0. 0. 0. 0. 0.
      0. 0. 0. 0. 0. 0. 0. 0. 0. 0. 0. 0. 0. 0. 0. 0. 0. 0.
      4.29904276e-06 0. 5.13587147e-05 2.30944715e-04 5.86682465e-03
      7.03907208e-05 1.77133134e-05 1.50784326e-05 1.29503696e-05
      2.44939281e-03 6.45483751e-03 1.24741346e-02 -6.94352342e-03
      -2.49370430e-02 -6.55250950e-03 1.26669463e-02 6.01582229e-03
      3.12418537e-03 1.77621492e-04 0. 1.76493049e-05 6.26696055e-05
      5.40798856e-03 1.21288162e-04 1.73862034e-04 1.10215711e-04
      1.29736989e-04 9.08786803e-03 6.17097830e-03 1.21627497e-02
      -2.71840906e-03 -2.49370430e-02 -9.70294047e-03 6.52164686e-04
      -8.24116927e-04 6.95318868e-03 4.34488524e-03 6.48245076e-03
      1.16347866e-02 -1.74025830e-03 -2.37825383e-02 -4.07127757e-03
      1.31214000e-02 1.09807765e-02 4.60169930e-03 1.04022333e-02
      1.59143265e-02 2.44631264e-02 2.71534845e-02 -1.34923030e-02
      4.49665356e-03 2.28059255e-02 2.38413922e-02 6.74191955e-03
      3.45715974e-03 4.03782260e-03 7.25125987e-03 -1.14856160e-03
      -3.42605002e-02 -2.42998078e-03 3.66367778e-04 1.99509109e-03
      -4.20253677e-03 -2.66218185e-02 1.90325659e-02 2.41467878e-02
      1.80998445e-02 -1.06023466e-02 2.29025725e-03 8.52127746e-03
      2.07197350e-02 -2.87589412e-02 3.86739406e-03 1.13841891e-02
      1.95540916e-02 2.69363709e-02 -1.87729998e-03 4.67286818e-03
      1.23202708e-02 1.55227482e-02 2.84358114e-03 5.18055353e-03
      9.39907413e-03 1.46814967e-02 8.39519501e-03 2.42155623e-02
      8.87741800e-03 1.20386640e-02 1.71909239e-02 1.26708690e-02
      -4.21025530e-02 2.68102512e-02 3.15557197e-02 2.68102922e-02
      1.16788326e-02 7.15381466e-03 8.53577256e-03 1.77348871e-02
      -4.05522659e-02 -3.58663388e-02 2.40624845e-02 1.77022479e-02
      1.02080032e-02 2.61313450e-02 1.53117441e-02 1.48857515e-02
      2.95362882e-02 -4.11688685e-02 1.09086391e-02 1.47756655e-02
      1.43033722e-02 1.13127250e-02 1.53947650e-02 1.71799380e-02
      1.16175767e-02 2.00385582e-02 1.73357055e-02 1.14203589e-02
      2.26166248e-02 2.19533145e-02 2.24576574e-02 2.15581618e-02
      1.93909705e-02 2.20730957e-02 2.24884991e-02 1.44329704e-02
      -4.97396961e-02 3.33948396e-02 1.45625975e-02 7.77215511e-03
      2.03285702e-02 2.12766100e-02 1.78144984e-02 3.18034701e-02
      -5.17073348e-02 -5.09133264e-02 4.70424145e-02 2.65323538e-02
      1.78609509e-02 3.02860402e-02 2.42444500e-02 1.92741565e-02
      3.12384572e-02 -5.09695895e-02 1.43407984e-03 8.49397853e-03
      6.54258113e-03 2.70061474e-02 3.07824872e-02 1.82103775e-02
      1.16633167e-02 1.07263410e-02 6.32948428e-03 7.69328140e-03
      1.53977172e-02 1.30744250e-02 4.95950878e-02 3.75155360e-02
      5.54009899e-02 3.19908485e-02 1.06563522e-02 6.51715230e-03
      -7.60546848e-02 1.60530694e-02 8.92621186e-03 2.27050297e-02
      3.74539644e-02 1.70724243e-02 8.31256900e-03 2.52469778e-02
      -7.40541145e-02 -6.12957180e-02 1.42334262e-02 1.14689972e-02
      3.44853401e-02 5.78698069e-02 5.13478965e-02 2.35984176e-02
      3.54633182e-02 -5.99175841e-02 8.09085846e-04 6.12973422e-03
      6.28679339e-03 2.27666739e-02 3.71048823e-02 5.76959141e-02
      2.90411543e-02 5.88284712e-03 1.43016060e-03 -6.01801730e-04
      2.89226323e-03 5.69587573e-03 1.44078024e-02 1.96874421e-02
      4.39797156e-02 2.84093209e-02 9.42366663e-03 3.99670593e-04
      -7.27701485e-02 7.11195450e-03 8.89000297e-03 1.71761122e-02
      4.62598652e-02 5.41318282e-02 2.89305933e-02 1.55375954e-02
      -7.32781589e-02 -5.26279584e-02 7.17072841e-03 9.35212802e-03
      1.57850459e-02 4.12192643e-02 4.62907366e-02 2.85497159e-02
      1.75828021e-02 -5.21506518e-02 2.28075846e-03 3.40783666e-03
      5.24126086e-03 9.18552745e-03 1.66298896e-02 4.23055105e-02
      2.45531090e-02 1.15666687e-02 2.53653154e-03 -1.87387096e-03
      1.69888698e-03 1.46982365e-03 1.48717733e-03 -9.21800360e-03
      9.84446052e-03 1.87740233e-02 1.49955768e-02 -8.78818624e-04
      -2.16573086e-02 5.06387837e-03 5.79967862e-03 8.01692624e-03
      3.26853022e-02 3.25853638e-02 1.77569930e-02 1.58725884e-02
      -2.32654922e-02 -2.68520229e-02 1.33619737e-03 3.45301954e-03
      1.77743263e-03 -1.93734781e-03 1.05565153e-02 1.15812933e-02
      1.62861552e-02 -2.56315339e-02 5.49277232e-04 3.35874589e-04
      6.77495613e-04 1.39663089e-03 -1.63010074e-04 8.13124422e-03
      1.46321757e-02 9.27104149e-03 1.05646881e-03 1.39524241e-03
      1.17856558e-04 2.05326607e-04 1.27961440e-02 -1.86536405e-02
      9.78113431e-03 1.02733485e-02 3.57013452e-03 1.37581339e-03
      -2.00648736e-02 1.80333154e-03 8.39764136e-04 1.75939233e-03
      -4.31279140e-03 2.36319122e-03 6.20893203e-03 9.65639669e-03
      -1.28929270e-02 8.42601439e-05 5.47977048e-04 -5.15256124e-03
      3.97298159e-03 -2.25801431e-02 2.02584616e-03 3.17953317e-03
      3.50348279e-03 -1.13191584e-03 9.48480738e-04 -5.26960976e-05
      1.34264890e-04 2.36335807e-02 -9.31525324e-03 6.73405128e-03
      6.20825263e-03 1.65059441e-03 1.21645676e-03 0. 1.50456508e-05
      -1.24279575e-06 4.31822555e-04 1.40118145e-03 1.14844217e-04
      4.96831672e-05 4.34061803e-06 0. 3.28357751e-03 -1.66799559e-03
      -9.03170835e-03 6.76792162e-03 -9.31525324e-03 5.46256546e-03
      2.73137679e-03 2.44798372e-03 2.02090503e-03 9.51832262e-05
      2.25684751e-04 -1.86419311e-05 2.56870117e-04 1.39782811e-03
      8.22241855e-05 7.22553596e-05 3.83789338e-05 9.51832262e-05 0. 0.
      0. 0. 0. 0. 0. 0. 0. 0. 0. 0. 0. 0. 0. 0. 0. 0. 0. 0. 0. 0. 0. 0.
      0. 0. 0. 0. 0. 0. 0. 0. 0. 0. 0. 0.</_></support_vectors>
  <uncompressed_sv_total>79</uncompressed_sv_total>
  <uncompressed_support_vectors>
    <_>
      0. 0. 0. 0. 0. 0. 0. 0. 0. 0. 0. 0. 0. 0. 0. 0. 0. 0. 0. 0. 0. 0.
      0. 0. 0. 0. 0. 0. 0. 0. 0. 0. 0. 0. 0. 0. 0. 0. 0. 0. 0. 0. 0. 0.
      0. 1.20473079e-01 1.81260198e-01 1.97767481e-01 1.97267964e-01
      5.53983152e-01 4.21273820e-02 1.72883168e-01 1.48315132e-01
      1.98519051e-01 0. 0. 0. 0. 0. 0. 0. 0. 0. 2.22211387e-02
      8.91945437e-02 3.39433625e-02 3.55204076e-01 5.53983152e-01
      6.89280704e-02 4.51635756e-02 7.52215013e-02 1.18263826e-01
      1.89342394e-01 9.70792472e-02 1.41671076e-01 1.28726050e-01
      2.08466098e-01 1.27859920e-01 1.38789386e-01 1.29608870e-01
      2.29621336e-01 2.71035314e-01 8.77389535e-02 2.01793566e-01
      1.98734060e-01 1.06341019e-01 2.71035314e-01 2.71035314e-01
      1.39569744e-01 2.71035314e-01 3.92171629e-02 5.46546504e-02
      3.53327356e-02 1.28392607e-01 2.71035314e-01 7.14720786e-02
      7.53080323e-02 8.45823884e-02 1.17147967e-01 5.28357290e-02
      6.18996881e-02 7.07500055e-02 6.78683817e-02 1.92366153e-01
      2.71035314e-01 2.71035314e-01 1.20062456e-01 1.10855371e-01
      3.18756074e-01 3.04019153e-02 8.44045430e-02 9.59320590e-02
      1.19596258e-01 2.95029342e-01 2.34264851e-01 3.44300047e-02
      3.18756074e-01 3.18756074e-01 8.30861647e-03 2.51623038e-02
      3.77843119e-02 1.57902002e-01 4.40796763e-02 2.48111524e-02
      1.82656676e-03 3.18756074e-01 3.62172127e-02 2.80335676e-02
      5.22761121e-02 3.35822366e-02 1.79678917e-01 3.18756074e-01
      3.18756074e-01 3.84065807e-02 3.55693474e-02 5.81231602e-02
      2.09279638e-02 4.17179875e-02 2.72820294e-02 1.86633661e-01
      2.55042553e-01 1.85139313e-01 8.12010281e-03 3.72849181e-02
      4.10296410e-01 1.59931183e-03 1.00152595e-02 3.54254022e-02
      2.09424198e-01 3.92460935e-02 2.85387579e-02 6.83231885e-03
      4.10296410e-01 4.10296410e-01 6.16271934e-03 3.04210410e-02
      4.56420965e-02 1.55600786e-01 2.15618871e-02 3.07991616e-02
      8.63679126e-03 4.10296410e-01 5.71411252e-02 1.02801891e-02
      2.16800459e-02 4.45064791e-02 2.74247825e-01 1.23500153e-01
      7.24988058e-02 1.25178797e-02 2.96921749e-02 4.63532098e-02
      4.53148410e-03 2.88978033e-02 9.40127596e-02 3.48602861e-01
      7.97667876e-02 4.98814397e-02 9.05746222e-03 3.58454995e-02
      4.40119475e-01 1.94386784e-02 3.87360975e-02 2.85177995e-02
      1.35615125e-01 4.79696924e-03 7.71659706e-03 2.52013374e-03
      4.40119475e-01 4.40119475e-01 1.19126048e-02 1.40945474e-02
      6.60882518e-03 1.65581301e-01 9.67646018e-03 1.97516195e-02
      5.22574084e-03 4.40119475e-01 5.13903871e-02 1.44671286e-02
      4.08994071e-02 4.30392399e-02 2.86897153e-01 2.09250040e-02
      1.44978715e-02 5.18819364e-03 4.92690392e-02 8.22294801e-02
      3.83903980e-02 3.61018367e-02 2.64991503e-02 2.48852119e-01
      2.47678775e-02 3.86845507e-02 1.36466324e-02 7.10368603e-02
      4.42479044e-01 1.25627581e-03 8.21053796e-03 1.25535550e-02
      1.67024046e-01 1.68002546e-02 1.45290755e-02 3.22531583e-03
      4.42479044e-01 4.42479044e-01 4.32786439e-03 1.86736975e-02
      2.66500935e-02 1.32160977e-01 2.49282569e-02 1.22240568e-02
      2.68092565e-03 4.42479044e-01 5.45053259e-02 2.87707616e-02
      1.69464219e-02 3.15010659e-02 2.68079162e-01 3.69545408e-02
      2.73152273e-02 6.61948742e-03 4.67499085e-02 5.05514145e-02
      7.00630108e-03 1.48451021e-02 1.64718367e-02 2.75571436e-01
      3.59573923e-02 3.10985874e-02 7.78920157e-03 4.28667553e-02
      4.88413095e-01 7.03797350e-03 2.18914766e-02 7.55541446e-03
      5.06228432e-02 9.70580801e-03 7.88876694e-03 1.99692091e-03
      4.88413095e-01 4.88413095e-01 4.60935244e-03 1.37929376e-02 0.
      2.95574646e-02 0. 2.60587293e-03 8.70836957e-04 4.88413095e-01
      4.97178808e-02 8.51816405e-03 2.61573363e-02 2.71706376e-03
      1.26353607e-01 1.80483777e-02 2.99469270e-02 1.06031206e-02
      4.48012650e-02 7.74389654e-02 6.02984009e-03 1.80435814e-02 0.
      4.81266342e-02 1.57058425e-03 1.22958496e-02 5.26787387e-03
      7.16315284e-02 4.00949955e-01 8.75237238e-05 2.61904352e-04
      2.15042802e-03 3.08935821e-01 7.29773752e-03 4.50060330e-02
      1.25453370e-02 4.00949955e-01 2.01602817e-01 0. 0. 4.73094126e-03
      4.00949955e-01 1.60550233e-02 9.51619148e-02 2.63126902e-02
      2.00949296e-01 3.49094644e-02 3.79379548e-04 1.13524823e-03
      6.35171775e-03 4.00949955e-01 5.79592772e-03 9.03717522e-03
      2.85374071e-03 3.36751491e-02 1.58410016e-02 0. 0. 1.39737790e-02
      4.00949955e-01 1.27510400e-02 8.54732934e-03 2.49045156e-03
      1.57974325e-02 1.01566739e-01 0. 0. 6.61653932e-03 6.90040290e-01
      2.24540271e-02 1.32098705e-01 3.64686809e-02 1.01566739e-01 0. 0.
      0. 0. 0. 0. 0. 0. 0. 5.35062235e-03 0. 0. 1.95432696e-02
      6.90040290e-01 1.78331882e-02 8.80657975e-03 2.43124529e-03
      5.35062235e-03 0. 0. 0. 0. 0. 0. 0. 0. 0. 0. 0. 0. 0. 0. 0. 0. 0.
      0. 0. 0. 0. 0. 0. 0. 0. 0. 0. 0. 0. 0. 0. 0. 0. 0. 0. 0. 0. 0. 0.
      0. 0. 0. 0. 0. 0. 0. 0. 0. 0. 0. 0. 0. 0. 0. 0. 0. 0. 0. 0. 0. 0.
      0. 0. 0. 0. 0. 0. 0. 0. 0. 0. 0. 0. 0. 0. 0. 0. 0. 0. 0. 0. 0. 0.
      0. 0. 0. 0. 0. 0. 0. 1.57150906e-03 2.51882784e-02 1.41509781e-02
      1.00823425e-01 6.93591595e-01 1.17088623e-01 4.95381560e-03
      1.52363386e-02 2.21326929e-02 0. 0. 0. 0. 0. 0. 0. 0. 0.
      2.61216308e-03 1.01614194e-02 1.66955329e-02 3.36300768e-02
      6.93591595e-01 6.02193289e-02 1.19360667e-02 1.23799341e-02
      6.07254682e-03 1.36424517e-02 4.25655209e-02 2.54042875e-02
      8.27305317e-02 4.22020584e-01 1.31398723e-01 4.27858829e-02
      7.50387460e-02 5.32143749e-02 3.56149673e-02 4.68683429e-02
      3.39693837e-02 3.60539369e-02 3.34972858e-01 3.64205331e-01
      3.26166242e-01 1.60559833e-01 7.94297233e-02 7.03236088e-03
      1.60040259e-02 3.31973396e-02 4.01117653e-02 4.22020584e-01
      9.52919796e-02 3.92968655e-02 4.82856184e-02 1.72368456e-02
      1.82426311e-02 2.81917211e-02 3.92513163e-02 3.10100559e-02
      3.22478384e-01 1.84204996e-01 1.79044545e-01 1.43445343e-01
      5.32326102e-02 2.19711494e-02 1.77665986e-02 1.98944565e-02
      1.61890574e-02 1.38340294e-01 3.22538763e-01 3.22538763e-01
      7.25780651e-02 4.41454947e-02 3.10206823e-02 2.06895042e-02
      5.57828061e-02 3.64939086e-02 1.20874956e-01 3.22538763e-01
      3.22538763e-01 3.95973139e-02 3.73409465e-02 2.81203762e-02
      5.24313189e-02 2.32434161e-02 1.12481900e-02 1.21544681e-01
      3.22538763e-01 3.22538763e-01 1.04506224e-01 5.52471615e-02
      3.38156596e-02 5.06154969e-02 5.77164590e-02 6.72555491e-02
      2.27821261e-01 3.22538763e-01 3.22538763e-01 1.24825910e-01
      3.62238176e-02 2.85250824e-02 1.57111753e-02 1.11094601e-01
      1.24400549e-01 3.36491913e-01 2.70926058e-01 2.05826789e-01
      3.44560668e-02 2.93470547e-02 2.39461241e-03 2.40345160e-03
      4.58553322e-02 1.31193861e-01 3.36491913e-01 1.35682628e-01
      5.73561601e-02 8.19627661e-03 3.09138116e-03 1.77628007e-02
      1.68545302e-02 1.27571523e-01 2.21273676e-01 3.36491913e-01
      3.36491913e-01 3.36491913e-01 1.36787876e-01 1.72672477e-02
      1.12098008e-02 8.42295494e-03 4.30664122e-02 1.37524530e-01
      3.36491913e-01 1.15949839e-01 9.59775075e-02 2.70465314e-02
      1.69025213e-02 7.86427632e-02 2.74341591e-02 6.88168034e-02
      8.50642845e-02 3.36557716e-01 9.59731042e-02 4.58300076e-02
      1.34293027e-02 6.53473064e-02 2.49896690e-01 2.42018744e-01
      1.96822479e-01 1.27806991e-01 3.36557716e-01 9.41336080e-02
      1.02073304e-01 4.07177657e-02 1.34561926e-01 7.31698424e-02
      1.94208343e-02 6.09113984e-02 1.00295290e-01 3.36557716e-01
      1.27261087e-01 1.42233416e-01 4.95764464e-02 7.98774734e-02
      1.61233693e-01 1.07361734e-01 2.03935981e-01 1.96447238e-01
      3.31424862e-01 1.98598832e-01 2.35769615e-01 7.44412169e-02
      1.18876949e-01 1.78615198e-01 2.90763915e-01 2.01950818e-01
      1.78785279e-01 3.43032122e-01 8.51990730e-02 7.35906437e-02
      2.10692529e-02 7.84747154e-02 2.94882916e-02 5.34054413e-02
      1.17426224e-01 1.28105432e-01 3.43032122e-01 6.55466095e-02
      8.47139955e-02 3.25980298e-02 2.35038511e-02 1.65921658e-01
      1.44168153e-01 2.44561583e-01 1.59128472e-01 3.38541538e-01
      9.90849733e-02 1.38548404e-01 4.86734509e-02 1.31274998e-01
      6.61266446e-02 4.42200750e-02 1.74227640e-01 2.18634591e-01
      3.43032122e-01 1.22473668e-02 4.62109558e-02 2.26957202e-02
      6.41877577e-02 3.13828923e-02 2.86711603e-02 1.07580103e-01
      5.26176542e-02 4.26050633e-01 8.09469670e-02 1.83579117e-01
      9.12933275e-02 4.03280407e-02 1.45576388e-01 3.05387154e-02
      8.87262747e-02 1.12817427e-02 4.26050633e-01 1.83331259e-02
      1.10754967e-01 5.36395423e-02 1.49076432e-01 1.63615998e-02
      2.27426626e-02 1.06823303e-01 1.14212826e-01 4.26050633e-01
      3.52272689e-02 1.26423255e-01 5.69178835e-02 2.10918095e-02
      6.25995547e-02 6.04358464e-02 1.12306207e-01 1.24595806e-01
      4.26050633e-01 8.84121656e-02 1.87803075e-01 8.11820626e-02
      6.27798289e-02 1.57632921e-02 1.72258355e-03 3.52150551e-03
      2.55260034e-03 4.97831643e-01 2.57414347e-03 6.92417147e-03
      2.18049460e-03 1.56368241e-02 4.66493331e-03 2.97956227e-04 0.
      4.74629505e-03 4.97831643e-01 4.50143870e-03 3.01186345e-03
      9.02722124e-04 4.60319361e-03 1.16484435e-02 1.03957811e-02
      7.28452438e-03 1.15751848e-02 4.97831643e-01 2.35178713e-02
      1.99839044e-02 6.97373133e-03 9.51348804e-03 7.07451068e-03
      4.84936917e-03 1.11617800e-03 3.00866575e-03 4.97831643e-01
      3.60211842e-02 8.43223743e-03 2.08708295e-03 5.77868707e-03
      8.57173000e-04 0. 0. 5.28578041e-03 7.04166591e-01 4.30559041e-03
      0. 0. 8.57173000e-04 0. 0. 0. 0. 0. 0. 0. 0. 0. 3.23281670e-03 0.
      0. 1.55893201e-03 7.04166591e-01 3.46183777e-02 0. 0.
      3.23281670e-03 0. 0. 0. 0. 0. 0. 0. 0. 0. 0. 0. 0. 0. 0. 0. 0. 0.
      0. 0. 0. 0. 0. 0. 0. 0. 0. 0. 0. 0. 0. 0. 0. 0. 0. 0. 0. 0. 0. 0.
      0. 0. 0. 0. 0. 0. 0. 0. 0. 0. 0. 0. 0. 0. 0. 0. 0. 0. 0. 0. 0. 0.
      0. 0. 0. 0. 0. 0. 0. 0. 0. 0. 0. 0. 0. 0. 0. 0. 0. 0. 0. 0. 0. 0.
      0. 0. 0. 0. 0. 0. 0. 7.36560486e-03 2.91548483e-03 9.96179506e-03
      3.37269716e-02 6.93160534e-01 4.61904937e-03 6.91210665e-03
      1.24319941e-02 1.21286260e-02 0. 0. 0. 0. 0. 0. 0. 0. 0.
      2.70883385e-02 1.49483298e-04 4.47310973e-04 1.68642774e-01
      6.93160534e-01 0. 1.02398219e-02 1.20284045e-02 3.22989039e-02
      1.74017157e-02 5.57973562e-03 2.64572520e-02 4.80331965e-02
      4.93710965e-01 3.00757904e-02 2.92061139e-02 5.61273210e-02
      3.48461717e-02 3.04536708e-02 1.58787556e-02 3.79563570e-02
      4.95155230e-02 3.55401069e-01 9.95064378e-02 1.31534755e-01
      1.32937983e-01 6.53157160e-02 7.51154050e-02 1.42939501e-02
      1.26512619e-02 1.56981051e-01 4.93710965e-01 7.60443090e-03
      3.71494479e-02 5.57451472e-02 8.31853822e-02 1.12669565e-01
      6.89275265e-02 6.52229115e-02 1.75838336e-01 4.33975369e-01
      3.88982184e-02 1.17225535e-01 9.92535278e-02 9.69902128e-02
      2.58692093e-02 5.36361635e-02 2.69367658e-02 2.35647094e-02
      1.15271360e-01 2.11431801e-01 2.23381281e-01 1.09574959e-01
      5.11347316e-02 2.96383798e-02 7.86345899e-02 5.38669601e-02
      1.05760381e-01 3.36313963e-01 3.36313963e-01 3.36313963e-01
      1.90176904e-01 5.24645932e-02 4.49540615e-02 6.07796125e-02
      5.75958230e-02 1.11071035e-01 1.41519681e-01 1.21248588e-01
      2.17471346e-01 1.06222712e-01 3.83152217e-02 2.75007095e-02
      7.40075782e-02 6.96250796e-02 1.19843245e-01 2.62643188e-01
      3.36313963e-01 3.36313963e-01 1.78447649e-01 3.58551666e-02
      7.56746763e-03 2.04141773e-02 2.93993391e-02 9.27365944e-02
      2.85056949e-01 2.99940526e-01 2.99940526e-01 7.65695870e-02
      1.09123997e-02 2.59502176e-02 5.38958386e-02 4.39321585e-02
      1.10964268e-01 2.50721633e-01 1.08633533e-01 9.94119868e-02
      3.05055864e-02 3.30922194e-02 8.27905349e-03 3.61461006e-02
      3.91976535e-02 9.05961841e-02 2.66873598e-01 2.99940526e-01
      2.99940526e-01 7.24840611e-02 1.00369323e-02 6.29063621e-02
      1.10537015e-01 1.02444112e-01 2.99940526e-01 2.99940526e-01
      2.99940526e-01 2.17325553e-01 5.65271676e-02 2.98509412e-02
      7.90451691e-02 6.38276711e-02 3.58402282e-02 7.41978139e-02
      8.89535919e-02 3.63596752e-02 5.29634394e-02 3.25687677e-02
      6.69848919e-02 8.82635564e-02 4.45882566e-02 3.17761339e-02
      5.85082397e-02 7.32280910e-02 8.33505392e-02 8.71566087e-02
      4.75124791e-02 9.47051346e-02 1.70095935e-01 1.78539902e-01
      1.52905107e-01 3.20133358e-01 3.20133358e-01 2.88697094e-01
      1.31132394e-01 4.65177931e-02 8.32233056e-02 1.64153323e-01
      1.57026961e-01 1.93700835e-01 3.20133358e-01 3.20133358e-01
      3.20133358e-01 3.04576516e-01 1.00711741e-01 1.35928929e-01
      7.96126425e-02 3.08819730e-02 5.06519377e-02 6.96288347e-02
      2.13528499e-01 1.25800312e-01 1.22349724e-01 6.64798468e-02
      1.17043853e-01 3.67077924e-02 1.76328588e-02 3.93600911e-02
      6.98449537e-02 2.74706692e-01 2.50500795e-02 4.83328104e-02
      2.53337324e-02 3.76251750e-02 9.24387351e-02 9.11323279e-02
      2.15081602e-01 3.59856904e-01 3.59856904e-01 3.59856904e-01
      3.59856904e-01 1.70322835e-01 1.29826650e-01 2.34375559e-02
      2.51555387e-02 5.47192134e-02 1.49467647e-01 3.59856904e-01
      1.00992203e-01 6.18766248e-02 3.34731117e-02 2.22351421e-02
      4.43693362e-02 4.97716554e-02 8.33561718e-02 8.74295160e-02
      3.85154486e-01 4.88475375e-02 9.35995579e-02 4.45810147e-02
      4.46000472e-02 5.56034185e-02 5.89633919e-02 9.04738903e-02
      1.12643898e-01 3.85154486e-01 1.68588877e-01 2.24077433e-01
      2.04513848e-01 8.87472928e-02 7.56188557e-02 6.52588829e-02
      1.17053278e-01 1.85601354e-01 3.85154486e-01 7.59539381e-02
      1.00150868e-01 6.40636757e-02 7.66919479e-02 1.38979092e-01
      6.72241226e-02 6.91163465e-02 6.33812547e-02 3.85154486e-01
      9.52719525e-02 1.25870764e-01 2.03945890e-01 1.72577947e-01
      1.05541972e-02 1.16660176e-02 8.25192314e-03 1.81183051e-02
      4.97717857e-01 2.29737218e-02 2.50222385e-02 1.93890482e-02
      8.80032685e-03 7.60741346e-03 5.68988966e-03 2.73820548e-03
      1.37843667e-02 4.97717857e-01 2.26626173e-02 7.17506092e-03
      2.89967214e-03 5.28198713e-03 9.53505095e-03 8.12376663e-03
      3.93969566e-03 9.75605380e-03 4.97717857e-01 8.07691645e-03
      1.13902437e-02 1.61892660e-02 9.03757941e-03 4.07809857e-03
      3.01907235e-03 1.58213894e-03 1.21265994e-02 4.97717857e-01
      9.44695028e-04 1.99683080e-03 1.78211683e-03 2.63273041e-03
      3.00243311e-03 0. 0. 1.23480782e-02 7.04340279e-01 2.12493911e-02
      0. 0. 3.00243311e-03 0. 0. 0. 0. 0. 0. 0. 0. 0. 1.15047570e-03 0.
      0. 1.23964306e-02 7.04340279e-01 4.76339977e-04 0. 0.
      1.15047570e-03 0. 0. 0. 0. 0. 0. 0. 0. 0. 0. 0. 0. 0. 0. 0. 0. 0.
      0. 0. 0. 0. 0. 0. 0. 0. 0. 0. 0. 0. 0. 0. 0. 0. 0. 0. 0. 0. 0. 0.
      0. 0. 0. 0. 0. 0. 0. 0. 0. 0. 0. 0. 0. 0. 0. 0. 0. 0. 0. 0. 0. 0.
      0. 0. 0. 0. 0. 0. 0. 0. 0. 0. 0. 0. 0. 0. 0. 0. 0. 0. 0. 0. 0. 0.
      0. 0. 0. 0. 0. 0. 0. 4.39676344e-02 0. 0. 2.76566833e-01
      6.52376831e-01 2.82684900e-03 5.23431506e-03 1.98649871e-03
      4.43786606e-02 0. 0. 0. 0. 0. 0. 0. 0. 0. 4.49298620e-02
      8.79615836e-04 0. 2.16852874e-01 6.52376831e-01 1.02673508e-01
      5.19830454e-03 1.51512679e-02 4.49627228e-02 1.41868442e-01
      2.92893779e-02 1.13547547e-02 2.44737163e-01 4.43182081e-01
      3.94855300e-03 1.19679319e-02 6.40209671e-03 1.10922575e-01
      2.31401935e-01 1.60350084e-01 6.77700639e-02 1.27927303e-01
      2.36481875e-01 7.71549856e-03 3.00967656e-02 3.39682028e-02
      1.11756802e-01 1.63427994e-01 4.34972607e-02 8.79323669e-03
      1.89882234e-01 4.43182081e-01 9.30677503e-02 7.68532092e-03
      2.19113827e-02 1.22784443e-01 3.23764563e-01 1.90639168e-01
      3.93024832e-02 5.27974069e-02 2.55845368e-01 3.10773477e-02
      1.82435568e-02 4.30768356e-02 1.88066736e-01 1.66206837e-01
      1.71018198e-01 1.09687977e-01 1.11371532e-01 1.13562912e-01
      6.70737103e-02 1.41898647e-01 1.62272125e-01 7.68149793e-02
      7.91187063e-02 9.29555222e-02 1.10887192e-01 1.09177224e-01
      1.91991255e-01 2.84313858e-01 2.84313858e-01 2.47776061e-01
      4.56768386e-02 2.69308925e-01 2.34730452e-01 7.96864182e-02
      4.27477248e-02 6.99275061e-02 3.50669064e-02 8.32042769e-02
      1.35644317e-01 1.61195487e-01 9.66256186e-02 1.11016244e-01
      1.40166625e-01 2.84313858e-01 2.84313858e-01 2.15537056e-01
      2.65825123e-01 1.61643818e-01 7.42316842e-02 6.98312325e-03
      1.60013940e-02 1.97053030e-02 6.41772151e-02 1.56169474e-01
      3.05665195e-01 2.08579049e-01 4.67534438e-02 7.51795107e-03
      3.61301452e-02 4.05805595e-02 4.03444469e-02 3.05665195e-01
      3.05665195e-01 3.05665195e-01 8.93873945e-02 2.89088339e-02
      6.00645179e-03 9.87169985e-03 1.65998600e-02 3.57140414e-02
      3.05665195e-01 3.05665195e-01 2.23373204e-01 8.27330425e-02
      2.62013786e-02 9.42563731e-03 3.61779481e-02 2.89073735e-02
      6.92456886e-02 3.05665195e-01 3.05665195e-01 3.05665195e-01
      3.57239246e-02 1.37773249e-02 1.02444300e-02 2.09105182e-02
      2.63532829e-02 4.57373559e-02 2.69287109e-01 3.10647815e-01
      1.60380304e-01 3.23285013e-02 5.08470973e-03 4.44286317e-03
      1.57619901e-02 2.61584967e-02 7.29032755e-02 2.28941724e-01
      3.10647815e-01 3.10647815e-01 1.69898599e-01 2.34358758e-02
      8.20386503e-03 1.00608980e-02 9.58605763e-03 2.77013760e-02
      1.48800075e-01 3.10647815e-01 3.03030640e-01 5.09775430e-02
      9.32371151e-03 1.55475200e-03 1.06440187e-02 1.71137042e-02
      3.06522641e-02 1.00437328e-01 3.10647815e-01 3.10647815e-01
      3.10647815e-01 4.04261276e-02 7.84840377e-04 1.05798552e-02
      2.16927566e-02 7.80773833e-02 1.41289577e-01 2.89092004e-01
      4.13688332e-01 2.53662556e-01 5.56184500e-02 1.10290842e-02
      3.11701628e-03 8.73654149e-03 2.43246183e-02 4.24059890e-02
      1.79557651e-01 5.24061434e-02 1.37103051e-02 1.07452227e-02
      7.49725522e-03 1.78522598e-02 4.59204875e-02 4.92673256e-02
      1.50014699e-01 3.69103640e-01 4.13688332e-01 4.13688332e-01
      8.38292837e-02 1.88075565e-02 1.21401018e-02 2.64618974e-02
      4.20342088e-02 9.16511118e-02 1.76744476e-01 2.21206143e-01
      5.39356135e-02 3.18962783e-02 2.76728757e-02 6.22430667e-02
      3.95858437e-02 1.35240987e-01 1.45579442e-01 3.49257201e-01
      6.47192001e-02 4.56153154e-02 5.71391098e-02 7.77101964e-02
      1.84173718e-01 6.13885224e-02 9.32291076e-02 8.47077146e-02
      3.42754275e-01 3.59126888e-02 2.75972486e-02 6.87145293e-02
      1.88844681e-01 6.92874864e-02 8.82178843e-02 2.32054844e-01
      2.25027144e-01 3.49257201e-01 1.90338165e-01 1.28823966e-01
      1.94555461e-01 1.30091205e-01 1.55208647e-01 6.23750836e-02
      1.39870092e-01 6.51885793e-02 3.49257201e-01 1.32387415e-01
      1.10288076e-01 1.38927057e-01 1.76481351e-01 1.23841343e-02
      4.27137828e-03 4.26879339e-03 3.93750612e-03 4.97926533e-01
      3.19179427e-03 2.50179553e-03 3.20102298e-03 1.22099854e-02
      1.83104887e-03 2.58832326e-04 1.81401963e-04 1.07654161e-03
      4.97926533e-01 3.22098937e-03 1.07591448e-03 5.78199280e-04
      1.85348338e-03 2.19466183e-02 3.03139188e-03 7.87560549e-03
      2.29924149e-03 4.97926533e-01 2.21535265e-02 1.29235545e-02
      1.25963381e-02 2.38416735e-02 1.00994054e-02 1.15029368e-04
      3.67742905e-04 1.43511489e-03 4.97926533e-01 2.53459048e-02
      5.76201547e-03 7.15665799e-03 1.13401841e-02 3.76576558e-04 0. 0.
      9.54796968e-04 7.04419672e-01 2.66709598e-03 0. 0. 3.76576558e-04
      0. 0. 0. 0. 0. 0. 0. 0. 0. 4.21833619e-03 0. 0. 1.52573420e-03
      7.04419672e-01 2.25346144e-02 0. 0. 4.21833619e-03 0. 0. 0. 0. 0.
      0. 0. 0. 0. 0. 0. 0. 0. 0. 0. 0. 0. 0. 0. 0. 0. 0. 0. 0. 0. 0. 0.
      0. 0. 0. 0. 0. 0. 0. 0. 0. 0. 0. 0. 0. 0. 0. 0. 0. 0. 0. 0. 0. 0.
      0. 0. 0. 0. 0. 0. 0. 0. 0. 0. 0. 0. 0. 0. 0. 0. 0. 0. 0. 0. 0. 0.
      0. 0. 0. 0. 0. 0. 0. 0. 0. 0. 0. 0. 0. 0. 0. 0. 0. 0. 0.
      1.74293555e-02 1.73346500e-03 0. 4.32977788e-02 5.55183887e-01
      8.58017951e-02 2.72155018e-03 1.54499905e-02 1.58286709e-02 0. 0.
      0. 0. 0. 0. 0. 0. 0. 4.31655377e-01 1.72172755e-01 3.51338275e-02
      1.53886080e-01 5.55183887e-01 4.29670215e-02 1.48139074e-01
      3.44097391e-02 3.19526076e-01 4.77091111e-02 1.58890393e-02
      2.22059316e-03 2.63537876e-02 3.70733351e-01 5.32244518e-02
      3.00671929e-03 1.56133696e-02 3.47148851e-02 9.72287059e-02
      4.22757566e-02 1.22250756e-02 1.50606213e-02 1.27500549e-01
      2.09434498e-02 1.02156382e-02 1.22518549e-02 6.97184503e-02
      3.70733351e-01 1.29405782e-01 3.00782975e-02 9.36648622e-02
      3.70733351e-01 4.17756587e-02 1.14934750e-01 5.90902977e-02
      3.70733351e-01 3.70733351e-01 7.75455981e-02 3.99858579e-02
      6.47753701e-02 1.59475952e-01 1.54283658e-01 1.33378074e-01
      8.35856274e-02 3.70733351e-01 1.41605198e-01 1.11440748e-01
      6.26576766e-02 5.27289063e-02 8.69687200e-02 6.06981739e-02
      5.52767813e-02 3.12304720e-02 1.00402735e-01 4.96811457e-02
      6.20297790e-02 8.39499459e-02 2.83826083e-01 2.83826083e-01
      2.29830012e-01 7.86781907e-02 2.52877288e-02 4.24581133e-02
      2.83826083e-01 1.49667606e-01 1.24902055e-01 1.57575324e-01
      1.57678381e-01 2.79967993e-01 1.62868440e-01 1.33350357e-01
      2.83826083e-01 1.36281744e-01 1.14717782e-01 1.03732198e-01
      1.71623528e-01 2.83826083e-01 2.83826083e-01 1.44993946e-01
      1.73726544e-01 2.02311397e-01 5.08423988e-03 8.96458607e-03
      4.75212857e-02 2.96597809e-01 2.96597809e-01 1.52111039e-01
      1.48997987e-02 2.43802625e-03 5.28803561e-03 1.29937269e-02
      2.15643346e-02 8.82731900e-02 2.96597809e-01 2.96597809e-01
      2.96597809e-01 1.18722497e-02 6.77184667e-03 7.15528568e-03
      2.48909630e-02 2.39952076e-02 1.03732750e-01 2.33901680e-01
      2.96597809e-01 2.21418127e-01 6.32699728e-02 4.15103063e-02
      2.90246606e-02 7.98638240e-02 6.91777840e-02 1.61360830e-01
      2.96597809e-01 2.96597809e-01 2.96597809e-01 7.56581947e-02
      3.99337672e-02 6.40402511e-02 2.83703278e-03 4.25222609e-03
      1.64793506e-02 7.32764527e-02 3.03552836e-01 3.03090394e-01
      2.96643656e-02 8.27027764e-03 9.33581963e-04 3.56738525e-03
      7.33961072e-03 1.32791158e-02 5.28619327e-02 3.41358244e-01
      3.41358244e-01 3.41358244e-01 3.94433066e-02 1.80237257e-04
      2.80712768e-02 1.23720840e-02 3.66519503e-02 7.67295510e-02
      2.20940337e-01 3.16076905e-01 2.66580172e-02 5.77552943e-03
      2.25811582e-02 1.00286501e-02 9.99465305e-03 4.89835367e-02
      1.24683611e-01 3.41358244e-01 3.41358244e-01 2.05104545e-01
      1.73983611e-02 9.10537876e-03 4.88286465e-03 1.26278792e-02
      9.81140509e-03 7.33956918e-02 2.64829218e-01 3.81812006e-01
      3.81812006e-01 3.31152044e-02 3.93774128e-03 5.75215463e-03
      9.90271196e-03 9.66615230e-03 5.02741598e-02 1.06220260e-01
      1.99465007e-01 4.27629538e-02 1.05605917e-02 8.10593925e-03
      2.97175138e-03 5.87601401e-03 2.96071526e-02 1.64247304e-01
      3.81812006e-01 3.81812006e-01 2.58458823e-01 1.68947037e-02
      5.06544719e-03 7.91689940e-03 7.33292755e-03 7.54109863e-03
      6.83675036e-02 2.97930628e-01 2.98574179e-01 4.79278937e-02
      8.13346356e-03 1.39575489e-02 5.69765680e-02 5.79575039e-02
      1.12831295e-01 2.19598293e-01 3.23050708e-01 2.17881873e-01
      1.21541426e-01 1.41035467e-01 9.06741619e-02 5.88801429e-02
      2.86416672e-02 8.08616057e-02 2.80349385e-02 3.23050708e-01
      1.56258062e-01 9.85831618e-02 9.28162858e-02 7.30309486e-02
      1.87863484e-01 9.27483067e-02 7.48252273e-02 2.00528756e-01
      3.23050708e-01 3.23050708e-01 1.63899496e-01 9.85812843e-02
      2.04103485e-01 1.20284863e-01 6.16040677e-02 9.00821984e-02
      2.95499898e-02 3.23050708e-01 1.25646248e-01 1.53084815e-01
      8.55630338e-02 1.24943711e-01 1.39253810e-02 1.20832690e-03
      4.10612067e-03 6.11556927e-03 4.97766465e-01 2.55758204e-02
      1.07279141e-02 9.54998191e-03 1.54094622e-02 1.02679469e-02
      4.24808350e-05 1.34992966e-04 1.12637663e-02 4.97766465e-01
      1.84835140e-02 3.71095003e-03 5.48761245e-03 1.12417843e-02
      1.14200376e-02 2.88764853e-03 8.99868179e-03 1.54950935e-02
      4.97766465e-01 1.27234943e-02 1.44873532e-02 4.98341117e-03
      1.17526902e-02 8.67542997e-03 3.56984558e-04 1.18634210e-03
      2.62464806e-02 4.97766465e-01 2.62424350e-03 2.64284783e-03
      9.73433838e-04 8.71242583e-03 4.34115063e-03 0. 0. 1.23805525e-02
      7.04155803e-01 1.64577849e-02 0. 0. 4.34115063e-03 0. 0. 0. 0. 0.
      0. 0. 0. 0. 2.80294078e-03 0. 0. 2.86241621e-02 7.04155803e-01
      1.78312126e-03 0. 0. 2.80294078e-03 0. 0. 0. 0. 0. 0. 0. 0. 0. 0.
      0. 0. 0. 0. 0. 0. 0. 0. 0. 0. 0. 0. 0. 0. 0. 0. 0. 0. 0. 0. 0. 0.
      0. 0. 0. 0. 0. 0. 0. 0. 0. 0. 0. 0. 0. 0. 0. 0. 0. 0. 0. 0. 0. 0.
      0. 0. 0. 0. 0. 0. 0. 0. 0. 0. 0. 0. 0. 0. 0. 0. 0. 0. 0. 0. 0. 0.
      0. 0. 0. 0. 0. 0. 0. 0. 0. 0. 0. 0. 0. 0. 3.23301762e-01
      9.25432444e-02 1.14768803e-01 1.69053033e-01 4.92497981e-01
      1.04872771e-01 1.12218544e-01 5.61170839e-02 3.00230324e-01 0. 0.
      0. 0. 0. 0. 0. 0. 0. 1.14993490e-01 3.98059487e-02 1.36133701e-01
      2.92066932e-01 4.92497981e-01 3.06590468e-01 5.23311980e-02
      5.88837564e-02 1.39312148e-01 1.99423507e-01 5.96847162e-02
      6.90717027e-02 7.00302199e-02 2.52854496e-01 6.94709793e-02
      6.60959482e-02 6.59448504e-02 2.93595642e-01 1.82600930e-01
      4.82615046e-02 6.00654818e-02 9.62166339e-02 2.35914022e-01
      1.44848377e-01 1.03155524e-01 8.71120840e-02 2.93595642e-01
      7.92535543e-02 6.58148453e-02 9.67307016e-02 1.71374887e-01
      2.93595642e-01 2.04256371e-01 6.16173744e-02 8.81746262e-02
      1.59362629e-01 8.55011716e-02 7.48092383e-02 1.00358315e-01
      2.93595642e-01 2.93595642e-01 2.78447956e-01 1.15023315e-01
      1.06751502e-01 1.97531387e-01 1.61346093e-01 5.94392419e-02
      6.17331490e-02 1.93313241e-01 3.57206434e-01 2.31461227e-01
      1.26146764e-01 9.68924835e-02 3.57206434e-01 5.94289936e-02
      4.37279455e-02 2.56372094e-02 6.59537017e-02 8.70088711e-02
      7.28628710e-02 4.92531508e-02 7.77015388e-02 8.57944489e-02
      8.15761685e-02 5.18606119e-02 9.11593363e-02 3.57206434e-01
      3.57206434e-01 3.57206434e-01 1.38677701e-01 9.03362036e-02
      1.62761509e-01 3.10754478e-02 3.50566432e-02 3.06814723e-02
      1.40517712e-01 1.99270591e-01 1.44692913e-01 7.93046057e-02
      7.50481039e-02 5.18365987e-02 5.39275892e-02 3.39678973e-02
      5.32293953e-02 8.51809904e-02 8.45074207e-02 6.41102195e-02
      3.97878736e-02 3.42820920e-02 5.83614409e-02 2.61653841e-01
      1.33862495e-01 1.27970293e-01 1.51184171e-01 1.07453667e-01
      1.00281253e-01 7.51061216e-02 8.78192559e-02 2.14388952e-01
      1.21498190e-01 5.87538108e-02 1.07554503e-01 1.69938534e-01
      2.02348545e-01 1.79522216e-01 1.47120476e-01 7.14859962e-02
      1.36302501e-01 2.66301215e-01 2.65223235e-01 2.24577680e-01
      2.66301215e-01 1.89194277e-01 2.66301215e-01 2.66301215e-01
      2.66301215e-01 2.66301215e-01 1.24266177e-01 5.46229221e-02
      9.54042450e-02 8.09499621e-02 1.47139013e-01 1.41283318e-01
      4.41011973e-02 4.07724455e-02 1.23027541e-01 4.11515571e-02
      2.81249098e-02 1.22038066e-01 2.74739891e-01 2.74739891e-01
      2.74739891e-01 7.69290924e-02 2.88255513e-02 6.62884191e-02
      2.74739891e-01 1.13530576e-01 1.43067881e-01 2.04655230e-01
      1.79637715e-01 1.93941966e-01 1.75024182e-01 1.89343870e-01
      1.95974573e-01 1.03227183e-01 6.35865927e-02 2.56159425e-01
      2.74739891e-01 2.74739891e-01 2.63224006e-01 8.33983421e-02
      8.36491510e-02 8.85195285e-02 1.36347646e-02 1.61811151e-02
      9.97062698e-02 3.58157992e-01 3.58157992e-01 3.58157992e-01
      8.36539865e-02 1.67953465e-02 6.40914636e-03 1.43142287e-02
      1.16118724e-02 1.37130609e-02 1.51613072e-01 3.00998449e-01
      1.18775778e-01 2.83232722e-02 5.22386329e-03 9.06723272e-03
      3.19527760e-02 4.06299420e-02 2.27557510e-01 3.58157992e-01
      3.58157992e-01 1.87729165e-01 3.52843329e-02 1.27253886e-02
      9.32798628e-03 1.16831195e-02 1.10695288e-02 2.78222263e-02
      2.16702923e-01 2.56270289e-01 5.07055819e-02 2.65161879e-02
      5.21789584e-03 5.71009517e-03 1.94530368e-01 1.19157024e-01
      1.01813406e-01 1.23852849e-01 2.58160412e-01 2.58160412e-01
      2.04607934e-01 1.01021960e-01 1.51970893e-01 9.62685123e-02
      6.80825934e-02 1.07409395e-01 2.73985509e-02 2.05395505e-01
      2.04908118e-01 2.33469501e-01 9.89136994e-02 8.99809524e-02
      9.21589732e-02 1.18410967e-01 1.87686980e-01 1.70873940e-01
      2.58160412e-01 2.53465414e-01 2.50737667e-01 1.09878220e-01
      7.52816722e-02 6.64221346e-02 1.24152184e-01 1.66160420e-01
      7.62739405e-02 2.58160412e-01 2.47308984e-01 2.04155341e-01
      6.87419772e-02 5.05561009e-02 1.44530376e-02 6.16983604e-03
      1.80755705e-02 1.83342863e-02 4.96077150e-01 1.74986776e-02
      2.21199710e-02 6.28512492e-03 1.48909092e-02 1.14116818e-02
      1.00194570e-03 3.07429908e-03 3.53538543e-02 4.96077150e-01
      2.02915748e-03 2.16028141e-03 7.19132717e-04 1.14116818e-02
      2.58943364e-02 1.39711360e-02 2.00902056e-02 2.59919539e-02
      4.96077150e-01 2.98088714e-02 1.95159949e-02 4.14252654e-03
      2.45705396e-02 1.91517472e-02 2.11386848e-03 3.43128061e-03
      4.95231040e-02 4.96077150e-01 1.21267317e-02 1.45601109e-03
      3.73220100e-04 1.89342815e-02 3.64011084e-03 0. 0. 3.85275781e-02
      7.02979803e-01 2.20236625e-03 0. 0. 3.64011084e-03 0. 0. 0. 0. 0.
      0. 0. 0. 0. 5.91303036e-03 0. 0. 5.36561273e-02 7.02979803e-01
      1.25143509e-02 0. 0. 5.91303036e-03 0. 0. 0. 0. 0. 0. 0. 0. 0. 0.
      0. 0. 0. 0. 0. 0. 0. 0. 0. 0. 0. 0. 0. 0. 0. 0. 0. 0. 0. 0. 0. 0.
      0. 0. 0. 0. 0. 0. 0. 0. 0. 0. 0. 0. 0. 0. 0. 0. 0. 0. 0. 0. 0. 0.
      0. 0. 0. 0. 0. 0. 0. 0. 0. 0. 0. 0. 0. 0. 0. 0. 0. 0. 0. 0. 0. 0.
      0. 0. 0. 0. 0. 0. 0. 0. 0. 0. 0. 0. 0. 0. 8.03028345e-02
      3.20689268e-02 2.00068839e-02 2.24155188e-01 5.22907555e-01
      2.18494356e-01 3.61067541e-02 9.81681421e-02 9.33058634e-02 0. 0.
      0. 0. 0. 0. 0. 0. 0. 3.92429322e-01 8.49030763e-02 2.41188072e-02
      1.12754725e-01 5.22907555e-01 1.44133061e-01 6.77895471e-02
      2.03777730e-01 2.84612447e-01 1.04861319e-01 8.87602493e-02
      3.71582396e-02 1.45522475e-01 2.81736344e-01 1.22234598e-01
      2.52569970e-02 7.76551366e-02 1.12565346e-01 1.16832122e-01
      1.40361175e-01 8.74954537e-02 2.81736344e-01 2.81736344e-01
      1.46404758e-01 3.53013948e-02 6.07518703e-02 1.18093967e-01
      2.81736344e-01 1.30382374e-01 4.80142049e-02 8.54677930e-02
      2.81736344e-01 5.37398607e-02 2.51770616e-02 1.36751115e-01
      2.12944865e-01 2.81736344e-01 2.36220568e-01 1.26378372e-01
      2.53048688e-01 2.81736344e-01 4.23122644e-02 3.01223770e-02
      1.15085274e-01 1.96456894e-01 8.19392353e-02 1.29004523e-01
      1.29815549e-01 3.50239486e-01 3.50239486e-01 2.43023738e-01
      5.85436560e-02 2.64962334e-02 6.07466847e-02 5.76057509e-02
      5.29786311e-02 5.20811900e-02 1.01650618e-01 2.12691560e-01
      1.19815506e-01 5.42269088e-02 4.08873223e-02 4.12988998e-02
      2.95876890e-01 2.97129542e-01 2.02919081e-01 3.50239486e-01
      3.50239486e-01 8.78598094e-02 7.04395548e-02 5.81268370e-02
      1.14228360e-01 1.40668482e-01 1.31760895e-01 7.70486072e-02
      4.88060340e-02 1.21552646e-01 5.32527640e-02 4.16451804e-02
      1.81021690e-02 4.90560159e-02 1.01658344e-01 2.73279734e-02
      5.99559136e-02 1.00885205e-01 1.71292394e-01 1.91365257e-01
      1.88960820e-01 1.07337974e-01 8.58720690e-02 2.70640433e-01
      1.53841391e-01 1.46776393e-01 2.03520179e-01 1.70320392e-01
      2.70640433e-01 2.70640433e-01 2.70640433e-01 2.69355893e-01
      7.08302557e-02 2.67810635e-02 4.05944064e-02 2.48977877e-02
      7.41405115e-02 7.97760189e-02 7.83016458e-02 6.55190200e-02
      4.43828553e-02 1.75260127e-01 1.04581460e-01 1.17415056e-01
      1.41675979e-01 1.67307034e-01 2.70640433e-01 2.70640433e-01
      2.47400478e-01 1.65049165e-01 1.38251841e-01 7.60781094e-02
      7.82283247e-02 1.67872220e-01 1.32050633e-01 2.59275883e-01
      2.08431020e-01 1.74965262e-01 7.39331394e-02 4.69884910e-02
      7.38668591e-02 1.94891751e-01 2.59275883e-01 2.59275883e-01
      2.59275883e-01 1.03444844e-01 7.19402358e-02 3.54293995e-02
      5.35356924e-02 8.67959782e-02 7.98248425e-02 1.90344647e-01
      1.93572357e-01 2.59275883e-01 2.59275883e-01 1.02210529e-01
      7.69107789e-02 4.03330624e-02 8.35810527e-02 1.40049070e-01
      2.59275883e-01 2.59275883e-01 2.59275883e-01 1.77378744e-01
      6.20708466e-02 5.54539636e-02 3.25642340e-02 9.81697813e-02
      3.39761317e-01 3.39761317e-01 3.39761317e-01 3.39761317e-01
      6.24382012e-02 4.75050602e-03 2.44218428e-02 9.72453412e-03
      1.37123531e-02 4.87954430e-02 1.42902598e-01 2.12384582e-01
      5.97904213e-02 2.58741025e-02 9.74033773e-03 1.15019865e-02
      3.63625251e-02 8.35194588e-02 2.46369034e-01 3.39761317e-01
      3.39761317e-01 3.39761317e-01 5.43434322e-02 2.17594281e-02
      4.06528227e-02 1.32929403e-02 1.72396321e-02 6.04568683e-02
      8.98994431e-02 1.12660699e-01 3.71507481e-02 1.24221789e-02
      6.45333761e-03 1.03966016e-02 5.38368560e-02 1.62122786e-01
      2.53551871e-01 2.09427491e-01 3.29017013e-01 1.55224159e-01
      1.50372580e-01 6.60547167e-02 4.41972129e-02 8.00636038e-02
      2.29642794e-01 2.06445500e-01 1.20299332e-01 3.29017013e-01
      8.12054351e-02 6.19421192e-02 1.14914868e-02 5.97412921e-02
      6.79406151e-02 1.34885192e-01 2.54214823e-01 3.29017013e-01
      3.29017013e-01 1.05747886e-01 4.95296232e-02 2.12366879e-02
      2.69269757e-02 4.63247523e-02 1.00789994e-01 9.41150188e-02
      9.76815522e-02 3.29017013e-01 1.59306247e-02 1.47877801e-02
      2.71342858e-03 3.60154696e-02 2.33668368e-02 1.84759293e-02
      1.64305437e-02 2.23719589e-02 4.96979088e-01 1.79669224e-02
      8.67331587e-03 1.21699751e-03 2.09637862e-02 1.49150379e-02
      2.34806468e-03 2.76689162e-03 3.63654383e-02 4.96979088e-01
      1.52107412e-02 1.00170483e-03 1.35259426e-04 1.45914741e-02
      8.70653149e-03 1.40599022e-02 8.58371332e-03 6.47538435e-03
      4.96979088e-01 2.05097236e-02 2.28684861e-03 9.00777173e-04
      6.59570377e-03 5.16113080e-03 9.25666094e-03 2.40731379e-03
      6.98623993e-03 4.96979088e-01 3.92874405e-02 6.97403855e-04
      9.02189582e-04 3.49394232e-03 4.57270956e-03 2.11649676e-04 0.
      3.88893299e-02 7.03337073e-01 1.53166372e-02 0. 0. 4.52885265e-03
      0. 0. 0. 0. 0. 0. 0. 0. 0. 1.95502443e-03 5.72572509e-03 0.
      4.86457581e-03 7.03337073e-01 4.19906378e-02 0. 5.45747927e-04
      8.81672953e-04 0. 0. 0. 0. 0. 0. 0. 0. 0. 0. 0. 0. 0. 0. 0. 0. 0.
      0. 0. 0. 0. 0. 0. 0. 0. 0. 0. 0. 0. 0. 0. 0. 0. 0. 0. 0. 0. 0. 0.
      0. 0. 0. 0. 0. 0. 0. 0. 0. 0. 0. 0. 0. 0. 0. 0. 0. 0. 0. 0. 0. 0.
      0. 0. 0. 0. 0. 0. 0. 0. 0. 0. 0. 0. 0. 0. 0. 0. 0. 0. 0. 0. 0. 0.
      0. 0. 0. 0. 0. 0. 0. 3.76772225e-01 1.60349697e-01 8.51657018e-02
      2.32567906e-01 3.76772225e-01 2.97847271e-01 1.31621659e-01
      2.43907601e-01 3.76772225e-01 0. 0. 0. 0. 0. 0. 0. 0. 0.
      7.10610822e-02 2.86300462e-02 7.71700218e-02 3.34795594e-01
      3.76772225e-01 2.09165856e-01 8.11653584e-02 2.26340778e-02
      3.25934142e-02 2.56530732e-01 1.40989408e-01 7.80437067e-02
      2.25922674e-01 2.56530732e-01 1.20770194e-01 4.32535931e-02
      1.88049957e-01 2.48519823e-01 2.56530732e-01 2.56530732e-01
      1.66245282e-01 2.56530732e-01 2.55428702e-01 7.76854157e-02
      4.59283665e-02 1.98742002e-01 2.31834397e-01 3.21144983e-02
      1.92650445e-02 4.37816679e-02 2.56530732e-01 2.56530732e-01
      8.09755698e-02 2.38942541e-02 1.51579035e-02 1.76950246e-02
      1.81283783e-02 2.95568239e-02 7.05605820e-02 2.56530732e-01
      2.56530732e-01 5.05395867e-02 1.54325766e-02 1.39775276e-02
      1.19434427e-02 2.70097584e-01 2.70097584e-01 2.70097584e-01
      2.70097584e-01 2.70097584e-01 7.45286420e-02 1.09337330e-01
      1.41872391e-01 1.63175657e-01 2.00087219e-01 2.59288460e-01
      1.70115069e-01 9.96940136e-02 1.78173214e-01 1.06700979e-01
      9.27655473e-02 1.02366991e-01 1.02317005e-01 3.62803489e-02
      7.95190111e-02 1.60455704e-01 2.70097584e-01 2.70097584e-01
      1.34655401e-01 7.51424879e-02 3.00727449e-02 1.40020773e-02
      6.61122948e-02 9.04846191e-02 9.12552625e-02 7.26827830e-02
      2.57983029e-01 1.41867399e-01 1.03024527e-01 1.23779699e-01
      8.05662870e-02 9.28327888e-02 1.18789420e-01 9.21146125e-02
      3.74542549e-02 1.32028550e-01 1.26752362e-01 1.15700819e-01
      1.47608712e-01 1.26705855e-01 2.06996024e-01 2.84847289e-01
      1.62428424e-01 2.84892887e-01 2.84892887e-01 2.84892887e-01
      2.84892887e-01 2.84892887e-01 2.84892887e-01 7.56339729e-02
      8.98722187e-02 4.99885790e-02 4.63372096e-02 1.01850182e-01
      4.94430773e-02 6.70799464e-02 1.09666981e-01 1.05622910e-01
      1.54733807e-01 1.81097731e-01 8.54015276e-02 1.10018864e-01
      1.51548207e-01 1.10500589e-01 1.41046882e-01 1.11959599e-01
      1.99423432e-01 1.15894996e-01 1.14363126e-01 8.37917328e-02
      2.01061577e-01 2.17541307e-01 2.71159619e-01 2.71159619e-01
      1.30488783e-01 1.70447990e-01 1.24444768e-01 8.21400806e-02
      1.25186354e-01 2.71159619e-01 2.71159619e-01 2.71159619e-01
      2.71159619e-01 1.69286236e-01 1.56682521e-01 4.82575037e-02
      4.45277281e-02 3.22637036e-02 4.13755290e-02 6.27130419e-02
      1.39624715e-01 1.11335479e-01 5.10066710e-02 6.56764135e-02
      5.06788231e-02 4.60856780e-02 6.44005761e-02 9.97520238e-02
